[{"message": "Conv2d test 1", "func": "conv2d", "args": {"input": [[[[-0.5158382058143616, 1.2233160734176636, 0.19591034948825836, 0.06882570683956146, -0.8064717650413513], [0.7841066718101501, 2.3924427032470703, -0.13014592230319977, -2.4689435958862305, 0.7497243881225586], [1.0044893026351929, 0.027642400935292244, -0.364067018032074, 0.3352341949939728, -1.4304492473602295], [-0.03951091319322586, -1.0074020624160767, -1.4951330423355103, -0.6878711581230164, -0.06075989082455635], [-1.7453750371932983, 1.4273117780685425, 1.4217413663864136, 0.6018248796463013, -0.9604251384735107]], [[0.6573100686073303, 1.3580325841903687, 1.1408272981643677, -0.24688714742660522, 1.0692976713180542], [-1.6039931774139404, -2.2060861587524414, 0.19493348896503448, -0.1332010179758072, 1.3844168186187744], [0.2418789565563202, -2.2607691287994385, -2.9197306632995605, -1.1846566200256348, 1.6215370893478394], [-0.7668832540512085, -0.7367249727249146, -1.2973239421844482, -1.0092977285385132, -1.669399619102478], [0.1691664308309555, 0.4742385745048523, 0.4616662561893463, -1.164089560508728, -0.22083376348018646]], [[0.19497746229171753, 0.6947658061981201, -1.0598392486572266, 0.04376368969678879, -0.17423434555530548], [-0.4383746087551117, 0.879764199256897, -0.08721022307872772, -0.46393296122550964, -0.32967236638069153], [-1.08698570728302, -0.23755118250846863, 0.33547142148017883, 0.89679354429245, -0.9223718047142029], [0.7046923637390137, 1.7425600290298462, 0.8172478675842285, -0.6677735447883606, -0.9247975945472717], [1.573742389678955, 0.3266468942165375, 0.06926007568836212, -0.7055721879005432, 0.3964907228946686]], [[-0.507702648639679, -0.8194854855537415, 0.28420543670654297, -1.463862419128418, 0.31691813468933105], [-0.1521366685628891, -0.9608895778656006, 0.35300323367118835, 1.515695333480835, 1.457540512084961], [0.8232330083847046, -0.6489426493644714, -0.8019490838050842, 1.3159735202789307, -0.5570622086524963], [0.9191588759422302, -1.6877713203430176, 0.9786443710327148, 1.4190729856491089, 0.04598301649093628], [-1.411741018295288, 0.425260990858078, -0.9091397523880005, -0.01999598927795887, 2.3863444328308105]]]], "weight": [[[[-1.784567952156067, -0.48591187596321106, -0.39974504709243774, -0.6004237532615662, 1.0162523984909058], [1.2396517992019653, -0.8302362561225891, 0.09180669486522675, 1.2281179428100586, -1.707627296447754], [-1.3556134700775146, 0.8215351104736328, 1.116424322128296, 1.9642938375473022, -2.1059324741363525], [0.5374512076377869, 0.8946857452392578, -0.25420325994491577, 0.3822188675403595, -0.3714269995689392], [-0.868010401725769, 1.218404769897461, -0.5205555558204651, -1.3110014200210571, -0.45177793502807617]], [[-0.5274933576583862, 0.6201604604721069, 0.5261479020118713, -1.4474376440048218, 1.2008169889450073], [-0.2209322303533554, 1.2129360437393188, 0.1669272631406784, 1.1010315418243408, -0.4461625814437866], [-1.7834850549697876, 0.13519226014614105, 2.822627067565918, 0.17035356163978577, 1.195834755897522], [-1.3381569385528564, 0.8405959010124207, -0.3019773066043854, -0.3634708523750305, -0.6044130325317383], [1.545609712600708, -0.3435843586921692, -0.6220512390136719, 0.5457361936569214, -0.5663690567016602]], [[-1.2020189762115479, -0.3076440989971161, 0.6520265340805054, -1.5807746648788452, 0.3718111515045166], [0.2677187919616699, 0.08387495577335358, -1.1811615228652954, 0.5232487916946411, -1.1374326944351196], [-1.117211937904358, 0.3650677800178528, -0.2896119952201843, -1.0792514085769653, 0.38583844900131226], [-0.9127985835075378, -1.5301707983016968, 0.3978548049926758, -1.5439071655273438, -0.4518113136291504], [0.5645896196365356, -1.917051911354065, -0.09522122144699097, -0.038295697420835495, 0.038556117564439774]], [[-0.5252748727798462, -1.1587715148925781, -0.06032625213265419, -1.8576442003250122, 0.00942221749573946], [0.04998756945133209, 0.6632224917411804, -1.6454306840896606, -1.888296127319336, 0.09651084244251251], [0.34070050716400146, -1.478829026222229, 0.030343590304255486, 0.13253137469291687, 1.1556025743484497], [-0.0328393317759037, -0.8481915593147278, -1.4319477081298828, 0.058476995676755905, 1.8714847564697266], [0.274766206741333, -0.25327321887016296, 0.763384997844696, -1.2130482196807861, 1.5649871826171875]]], [[[0.49123963713645935, 1.6705694198608398, -0.941714882850647, -0.3024290204048157, 2.6437149047851562], [0.539376437664032, 1.2093894481658936, -0.8765614628791809, -0.17440418899059296, 0.17364712059497833], [0.6169871687889099, 1.710771083831787, -0.01228682417422533, 0.7457074522972107, -0.2800884246826172], [0.3971712589263916, -0.38360434770584106, -0.8707278966903687, -1.0321600437164307, -2.0866312980651855], [-0.2118762582540512, 1.997922658920288, -1.1718544960021973, 0.6429179310798645, -0.8595666885375977]], [[0.6958768963813782, 1.5516594648361206, -1.0816311836242676, 1.4302409887313843, 1.6524490118026733], [-0.909326434135437, -0.42917269468307495, 1.2152633666992188, 0.6711399555206299, -0.038091301918029785], [-0.721687912940979, -1.4865097999572754, -0.5138322114944458, 1.5726596117019653, 0.18472832441329956], [2.8652772903442383, -1.1986083984375, 0.5610071420669556, 1.0417335033416748, -0.49610260128974915], [1.067435622215271, 1.0130350589752197, 0.4858543574810028, 0.7964195013046265, -0.007316408213227987]], [[0.6761180758476257, -1.3403668403625488, -0.17508478462696075, 1.7127728462219238, -0.7797977924346924], [-0.05810677260160446, 0.3534086346626282, -1.1193865537643433, 0.1450907588005066, 1.072870135307312], [-0.9945080280303955, -2.267383337020874, 0.25758451223373413, 1.3912556171417236, 0.6008991599082947], [1.2568094730377197, 0.47102785110473633, 0.3967304825782776, 1.40102219581604, -0.0013911270070821047], [-0.48450109362602234, 0.5828739404678345, 0.33414196968078613, 1.444917917251587, 2.130363941192627]], [[1.2280300855636597, 1.0650230646133423, 0.672726035118103, 1.1449944972991943, -0.4070006012916565], [-0.6956372857093811, 1.51414155960083, -0.3225577473640442, 0.4826616942882538, 0.04866386577486992], [-1.8480888605117798, -0.35086971521377563, 0.09284643083810806, -0.05108204483985901, 0.7536247372627258], [-0.42865073680877686, 0.9590962529182434, 0.23998858034610748, 1.5123000144958496, 0.03671173378825188], [-2.162299394607544, 0.04447466880083084, -0.6730406284332275, -0.5837751030921936, 0.36955174803733826]]], [[[0.14359831809997559, 0.7195475697517395, 1.2704944610595703, 0.27093616127967834, -0.0163918137550354], [0.6960943937301636, 0.05646476522088051, 1.4408851861953735, -0.392076700925827, -0.5739962458610535], [-0.3319421112537384, -0.6455243825912476, -0.8479140400886536, -0.6388127207756042, -0.243153914809227], [-1.6274113655090332, -0.01153672393411398, -0.5240020751953125, 0.6915203332901001, -0.22563640773296356], [-0.39758217334747314, 0.6973606944084167, -2.230085849761963, -0.7969975471496582, 0.8900126218795776]], [[-0.6244701743125916, -1.2389260530471802, 0.20230162143707275, -1.436885118484497, -1.0891692638397217], [0.39949244260787964, -0.3035891652107239, -1.1840296983718872, -0.9926126003265381, -0.4553062915802002], [0.03705340623855591, 0.7262362837791443, 0.8701496720314026, 0.6533113121986389, -0.24476255476474762], [-1.5112570524215698, -0.27861288189888, 0.18797700107097626, -0.8766396045684814, 0.5849568843841553], [0.8298296928405762, -0.12224269658327103, -0.7558889389038086, 0.4637243151664734, -0.352585107088089]], [[0.9507619142532349, -1.7640297412872314, -0.07965417206287384, -0.3700670599937439, -1.5178145170211792], [0.5552452206611633, 1.4076956510543823, 0.7135953307151794, 0.3017232120037079, 0.23559440672397614], [-1.1895607709884644, 0.49034571647644043, 0.3510138690471649, 1.3701896667480469, -0.48974737524986267], [0.5727744698524475, 0.35848966240882874, -0.28405576944351196, 0.7698138356208801, 0.15230466425418854], [-2.0973117351531982, -1.2387970685958862, -0.11242341250181198, 1.6047589778900146, -0.2460869550704956]], [[0.12599758803844452, -0.501093327999115, -0.9004461169242859, 1.2210180759429932, 0.759710431098938], [1.680687665939331, -0.3826431632041931, 0.017499178647994995, -0.2021895796060562, 0.3861446678638458], [-0.1295739859342575, -2.167421579360962, -1.098711609840393, 0.1482914537191391, 0.034299470484256744], [0.8140801787376404, -0.4198637902736664, -0.3772495687007904, 0.0853113904595375, 0.15087546408176422], [-0.8144524693489075, 1.3192723989486694, 0.15391142666339874, -1.053199291229248, 1.5276861190795898]]], [[[-3.2823574542999268, -0.7689750790596008, 0.378713458776474, 1.0419071912765503, 1.0862184762954712], [1.3864401578903198, -1.8938663005828857, -0.8532797694206238, 0.5051759481430054, 0.9220861196517944], [0.8684732913970947, 1.4440973997116089, 0.042958520352840424, -0.022428417578339577, -0.8526685237884521], [-0.5383267402648926, -0.6728402376174927, -0.33821770548820496, 0.19200049340724945, 0.44512760639190674], [-1.007935643196106, -1.3524893522262573, 0.824890673160553, 0.0685187503695488, 0.4709603786468506]], [[-0.10323379933834076, 0.31475552916526794, 1.225561261177063, -0.4469637870788574, -0.48518499732017517], [-0.34508445858955383, -1.7547096014022827, 0.5182942152023315, 0.6091026067733765, -0.2618774175643921], [1.7324384450912476, -1.0445294380187988, 0.9647738337516785, 1.426612138748169, -0.9658947587013245], [0.6799436807632446, -0.527488112449646, 1.498823881149292, 0.11796433478593826, 0.8631199598312378], [-0.06452484428882599, 1.3797003030776978, -1.796506643295288, -0.8717626929283142, 0.4629773795604706]], [[0.0024709333665668964, -0.7772302031517029, 0.1151842251420021, -1.9026249647140503, -0.3374222218990326], [-0.8435019254684448, 0.44278889894485474, 1.0973243713378906, -1.7893861532211304, -0.4519578516483307], [0.76634281873703, 0.2593819499015808, 1.096083164215088, -0.8915305137634277, -0.9260957837104797], [-0.48512762784957886, -0.8174383044242859, -1.384284257888794, -0.5516363978385925, 1.0271097421646118], [0.6224570274353027, -0.6901828646659851, 0.28550827503204346, 0.9597465395927429, 0.6651662588119507]], [[0.3365701138973236, -0.5565767288208008, -1.5850578546524048, 0.42635273933410645, -0.7679364085197449], [-0.45026272535324097, -1.2841911315917969, 1.7356106042861938, 0.25741150975227356, 0.27512070536613464], [0.5749958753585815, 1.1031447649002075, 0.8480815291404724, 1.7320224046707153, -1.026308536529541], [1.943982720375061, -0.28874441981315613, -0.6915079951286316, 0.9209986329078674, -1.1700390577316284], [-2.3618357181549072, -1.1786214113235474, -0.9623310565948486, -0.494245707988739, 2.2330875396728516]]], [[[1.9450381994247437, 0.9387266635894775, 0.5451075434684753, 0.7204412221908569, 0.5562000274658203], [1.439306378364563, 0.614000141620636, -0.35269808769226074, -1.251151442527771, -0.732280969619751], [-0.6242792010307312, 1.0908011198043823, -0.06693072617053986, 0.2281630039215088, 1.522992491722107], [-0.7124488353729248, 0.08343273401260376, 0.8129467964172363, -0.30977559089660645, -0.42333462834358215], [1.0263080596923828, 1.4165983200073242, -1.0008034706115723, 1.063268780708313, -0.4603254795074463]], [[-0.9504686594009399, 0.3254467844963074, -0.17324627935886383, -0.3025133013725281, -0.320835679769516], [-1.184525489807129, 1.8769665956497192, 1.9428828954696655, -1.3826383352279663, -0.2919670045375824], [0.44265446066856384, -0.22794519364833832, 0.5196663737297058, -0.5016757249832153, -1.1167759895324707], [1.2029906511306763, 0.3425152003765106, 0.6941747665405273, -2.3468079566955566, -1.051375150680542], [-0.012757038697600365, 0.6731026768684387, -1.2338452339172363, 0.14848382771015167, -1.5425728559494019]], [[-0.8733401894569397, 1.1499826908111572, -1.4606276750564575, 2.473034620285034, -1.8047734498977661], [0.19931723177433014, -0.049499861896038055, -0.9215959906578064, -0.6681123971939087, -0.11914044618606567], [-0.464721143245697, -1.0974162817001343, 0.4858810603618622, -0.128942608833313, 0.535488486289978], [-0.7184382677078247, 0.26697006821632385, 0.5270870327949524, -0.5653989911079407, -0.5169505476951599], [-0.1687730997800827, -1.0654537677764893, -0.23111775517463684, 0.025979014113545418, 0.8830986618995667]], [[0.3789871037006378, 0.3483408987522125, -0.3446614146232605, -0.30839964747428894, -0.9961329698562622], [-0.3471669852733612, -0.6671879291534424, -1.023574948310852, -0.5815075635910034, -0.06921777874231339], [0.7798188328742981, 1.0779041051864624, -0.36000362038612366, -1.1296967267990112, -1.7060809135437012], [-0.5150600671768188, -1.2925419807434082, -0.47256702184677124, -0.5392358899116516, 1.192712426185608], [1.8189152479171753, 0.6927663683891296, -0.15098895132541656, 0.45202380418777466, 1.785766839981079]]], [[[-0.8633849620819092, -0.1616450995206833, -1.0317705869674683, 0.1137157455086708, -1.1249151229858398], [-0.7135227918624878, -0.26341405510902405, -0.17402680218219757, 0.9064041972160339, -0.2798108756542206], [-1.2908639907836914, -1.1587122678756714, -0.0025654714554548264, 1.093501329421997, 0.48198843002319336], [0.8671702742576599, 2.190734386444092, -0.6033424139022827, 0.4365368187427521, 0.17556945979595184], [0.6522712111473083, 0.7890772223472595, 0.03399043157696724, -1.957457423210144, -0.31638333201408386]], [[-0.45887115597724915, -0.23877599835395813, 0.07954414933919907, -0.11355092376470566, 0.5874755382537842], [1.374617338180542, 0.001057800487615168, 0.13368012011051178, 0.4094957411289215, 0.4585508108139038], [0.4550573229789734, -0.12635551393032074, 1.0220551490783691, -2.072295665740967, -0.8137736320495605], [-1.4329941272735596, -1.7277814149856567, -0.016551561653614044, -0.35948413610458374, 0.6317778825759888], [1.610090732574463, -0.0376027375459671, 0.7200416922569275, 0.9191009402275085, -1.6509873867034912]], [[3.119002342224121, -0.7421184778213501, -0.6859902739524841, -0.015881163999438286, 1.1887948513031006], [1.802228569984436, -1.7311391830444336, 2.072758436203003, 0.1625228077173233, 1.2677385807037354], [-0.31257691979408264, 1.3308348655700684, -0.5245562195777893, -1.6900460720062256, 1.123731017112732], [-0.5062834620475769, 0.6599432826042175, -0.706693708896637, -0.41998112201690674, 0.19153575599193573], [-0.8551021814346313, 1.88479745388031, 0.49886515736579895, 0.8294488787651062, -0.8205760717391968]], [[1.6958374977111816, -0.6321682333946228, -0.8969787359237671, 0.27551504969596863, 1.9433815479278564], [-1.2650986909866333, 0.10632197558879852, -3.267052412033081, -1.983883261680603, -0.262540340423584], [0.31483057141304016, 0.8620964288711548, -1.697831153869629, -0.035249657928943634, -0.34866270422935486], [-2.093463659286499, 0.10364527255296707, -0.7667716145515442, -0.0011592628434300423, 0.2010212540626526], [-0.9920458197593689, -1.0052945613861084, -0.16589783132076263, -0.38131338357925415, -1.1695717573165894]]], [[[-0.6471784710884094, 0.5885711312294006, 0.049697645008563995, 1.2132151126861572, -0.7023285031318665], [-0.7257146835327148, -0.6142786741256714, 0.7337816953659058, 0.713219940662384, 0.3709513545036316], [1.1954891681671143, -1.8514736890792847, -0.9122158885002136, 1.2011905908584595, -2.3691515922546387], [-0.05642835423350334, 0.6021117568016052, -1.3637280464172363, -0.134706050157547, -0.42426079511642456], [-0.28827232122421265, -0.3522419333457947, -0.6689954996109009, 2.358173370361328, 0.9041356444358826]], [[-1.7536816596984863, -1.2248085737228394, 0.19769121706485748, 0.060928817838430405, -1.1492434740066528], [0.012813344597816467, -1.4979455471038818, -1.1676571369171143, 2.6249890327453613, -1.512390375137329], [0.005081298295408487, -0.973166823387146, -1.0348131656646729, -0.19539996981620789, 1.9115056991577148], [0.0076376828365027905, -0.013380729593336582, 1.4194530248641968, 0.21180275082588196, -1.6775978803634644], [-0.19410820305347443, -0.23106932640075684, -1.0407735109329224, 0.8084279298782349, 0.2752143442630768]], [[-0.533421516418457, -0.5597266554832458, -0.28752097487449646, -0.2839866578578949, 0.8867051601409912], [-0.8290269374847412, 0.1258394718170166, -0.7435243725776672, 0.548555314540863, 0.5624569058418274], [0.33582639694213867, -0.3060463070869446, 1.8299041986465454, 0.5483598113059998, 0.4352276623249054], [-2.872831106185913, 0.36393970251083374, 0.45715615153312683, 0.9276431798934937, 0.6247912049293518], [-0.2781364917755127, 1.3794217109680176, 1.2039166688919067, -1.8290437459945679, 0.3646140396595001]], [[1.419627070426941, -1.516271948814392, -1.6592621803283691, 2.5877435207366943, -0.4083060324192047], [-0.03718795254826546, 0.42767325043678284, 0.310208797454834, -0.36046740412712097, -0.6199122667312622], [-1.8104772567749023, 1.312347650527954, -0.4503292739391327, 0.443915992975235, 1.101549744606018], [1.6762101650238037, 0.0319143570959568, -0.061556193977594376, -0.09342212229967117, -1.6466829776763916], [1.230428695678711, 0.22954986989498138, -0.4406777322292328, 0.21174481511116028, -0.14878122508525848]]], [[[-0.19287759065628052, -1.5128847360610962, 1.0292885303497314, 0.676628828048706, 0.21265177428722382], [-0.45403364300727844, -0.31917881965637207, 1.018790602684021, 0.3365250825881958, 0.14585433900356293], [0.6507433652877808, 0.02936154417693615, 1.187798261642456, 0.31677183508872986, -0.5436956882476807], [-0.36030998826026917, 0.9423590898513794, -0.6577914357185364, 0.3585921823978424, -1.8572165966033936], [2.212447166442871, -0.10215673595666885, 0.5105007886886597, -0.19880688190460205, -0.8594689965248108]], [[0.7312407493591309, 0.7755142450332642, -0.44093748927116394, -0.28745537996292114, -1.5827704668045044], [0.14237472414970398, 0.00886819139122963, 0.6084737181663513, -0.30212169885635376, -1.7825933694839478], [1.6465048789978027, -0.18357469141483307, -0.13005338609218597, -2.0587635040283203, 0.19429433345794678], [0.37629756331443787, 0.39512771368026733, 0.5216492414474487, -2.1277785301208496, 0.3077920973300934], [-0.2203921377658844, 0.1747332215309143, -0.27424749732017517, -2.289945363998413, 1.5558511018753052]], [[0.5053849220275879, 0.4299056828022003, -0.4024004638195038, -0.04962632805109024, -1.5143309831619263], [1.3930397033691406, 0.13750366866588593, -0.27476567029953003, -0.02180718630552292, 1.6951563358306885], [2.145082473754883, -0.10026280581951141, 0.8919182419776917, -0.25744643807411194, -0.1166083887219429], [-0.47016385197639465, -0.23837700486183167, -0.03321836516261101, 0.6781511902809143, -0.8583701848983765], [-1.329005479812622, 0.23651880025863647, 0.30324363708496094, 1.561423897743225, 0.4209974408149719]], [[0.2303575724363327, 0.19841334223747253, 0.7254093885421753, -0.09345459938049316, -0.3484618365764618], [-0.49454185366630554, -0.7059924602508545, -1.4483603239059448, 0.21806709468364716, -0.9840641617774963], [-0.17016729712486267, -0.14942733943462372, 1.662368655204773, 0.22201229631900787, 1.7343255281448364], [-0.24997781217098236, 0.10543554276227951, 1.2327982187271118, -0.06851918250322342, 0.5547620058059692], [1.2261239290237427, 1.1866931915283203, -1.418424367904663, -1.542730689048767, -0.5708328485488892]]]], "bias": null}, "target": [[[[-7.8850321769714355]], [[17.808469772338867]], [[-2.7158515453338623]], [[11.971595764160156]], [[3.7618017196655273]], [[-22.639827728271484]], [[0.45014986395835876]], [[-10.707463264465332]]]], "log": "always", "log_config": "fail"}, {"message": "Conv2d test 2", "func": "conv2d", "args": {"input": [[[[-1.4416863918304443, -1.037637710571289, 0.33964064717292786, -0.484369158744812, -1.4407405853271484], [-1.6083601713180542, 0.9745997190475464, 1.8906075954437256, -0.37632185220718384, -1.315125584602356], [0.16657625138759613, 0.20266571640968323, -0.5083861947059631, -0.9201220870018005, 0.7463418245315552], [1.3904637098312378, 0.016519667580723763, -0.6664878129959106, 1.4863823652267456, -0.1381603181362152], [-0.5333652496337891, 0.4076736271381378, -0.13443869352340698, 1.0207651853561401, 1.0533735752105713]], [[0.008209608495235443, -1.7446303367614746, -1.9157923460006714, 0.5594053268432617, -0.8650060892105103], [-0.8045546412467957, 0.03773290291428566, -2.054455518722534, -0.4804477393627167, -0.4202249050140381], [1.7851499319076538, 0.05097636952996254, 0.5602569580078125, -0.580761730670929, -0.42647871375083923], [-0.6920198202133179, 1.09465754032135, -0.5717995166778564, -1.3907623291015625, -0.8202501535415649], [0.24807927012443542, 1.5567989349365234, 2.004115581512451, 0.4403187334537506, 1.3843836784362793]], [[-1.2387560606002808, 0.3760804533958435, -1.6210860013961792, 0.07527542859315872, -1.4663937091827393], [-0.8537063598632812, 0.6797017455101013, -1.168737769126892, -0.15956197679042816, 2.2187581062316895], [0.3854712247848511, 1.547295331954956, -0.16377483308315277, 0.0384596586227417, 0.9985411167144775], [1.4657942056655884, 1.141462802886963, -0.8797649145126343, -0.28875330090522766, 1.9751124382019043], [-0.45740020275115967, 1.2694041728973389, 1.4240504503250122, 0.1345958262681961, 0.3253956437110901]], [[0.5073384642601013, -1.2543834447860718, 0.4829585552215576, 0.1414295732975006, 0.7007837891578674], [-0.015776513144373894, -0.7242727279663086, -0.7921933531761169, 0.4395809471607208, 0.15113072097301483], [0.9193121790885925, -1.0029608011245728, 0.8604050278663635, -0.5226485133171082, 0.851220965385437], [0.34363263845443726, 1.112798810005188, -0.8099934458732605, 1.4277540445327759, 0.48028862476348877], [0.27452823519706726, -0.599916934967041, 1.8884016275405884, -1.6351056098937988, 0.4158402681350708]]]], "weight": [[[[1.5842927694320679, 0.5793673396110535, 0.05887483060359955, -0.7039046287536621, -0.8754504919052124], [0.5434715151786804, -0.6873175501823425, 0.08250410854816437, -0.7684124112129211, -0.7074787616729736], [0.8619245290756226, -0.5172212719917297, -0.8097276091575623, 0.043275922536849976, -1.367618203163147], [0.7969805002212524, 0.5536286234855652, 0.14120851457118988, -0.3077768385410309, 0.3308345079421997], [0.5069474577903748, -1.7749758958816528, -0.538563072681427, 1.6720765829086304, -0.9842666983604431]], [[-0.41570448875427246, 0.5836026668548584, -0.5698232650756836, 0.433083176612854, -0.2748061418533325], [-1.1369818449020386, -0.39600667357444763, 2.2002384662628174, 2.5428824424743652, 1.4452966451644897], [-1.9915919303894043, -0.6308566331863403, 1.587999939918518, -0.2517881691455841, -0.7329069972038269], [-0.18039533495903015, -0.560408890247345, 0.8348695039749146, -0.667342483997345, 0.22388744354248047], [-0.5428563952445984, 1.5236542224884033, 1.9693318605422974, 0.25725963711738586, 0.849656879901886]], [[0.7482209205627441, 1.4070242643356323, -0.6150273680686951, 0.4243839383125305, 0.5451669692993164], [-0.4244517683982849, 2.8044939041137695, 0.8225133419036865, 1.4847246408462524, 0.9084011316299438], [-0.7619439959526062, 0.7356349229812622, 0.11265413463115692, -0.1483127772808075, -0.8091928958892822], [0.7515208721160889, -0.696742057800293, 1.7329509258270264, -0.49025267362594604, 0.6537882089614868], [1.326913595199585, 0.18458344042301178, -0.35345396399497986, 0.05889332294464111, 0.9961603283882141]], [[0.06446980684995651, -0.7405559420585632, -0.17390108108520508, 0.6428282260894775, 0.14943498373031616], [-1.0746763944625854, -0.014340170659124851, -0.568664014339447, -0.08960261940956116, -0.5952687859535217], [0.22094690799713135, -0.5081676840782166, -1.3344507217407227, 1.2669105529785156, 1.3721305131912231], [-1.4755401611328125, 1.3573615550994873, -0.2904912829399109, -0.6607740521430969, 0.10616549849510193], [-0.9755809903144836, 2.066608190536499, -0.9407885074615479, 1.0841315984725952, 0.5928127765655518]]], [[[1.735676646232605, 0.5245438814163208, -1.1792176961898804, 1.4424291849136353, -0.2623666822910309], [-0.37296926975250244, 0.37595516443252563, -0.4076851010322571, 0.35836124420166016, -1.6389387845993042], [-0.12963609397411346, 0.5355924367904663, 0.10802639275789261, 1.567762017250061, -1.1307231187820435], [1.3875877857208252, -1.3954620361328125, 1.8111587762832642, -0.07834651321172714, 0.3269370198249817], [-0.9327703714370728, 0.5552656054496765, 0.05089690908789635, -0.8436996936798096, 0.3988708555698395]], [[-0.5653596520423889, -1.6273759603500366, 1.3185033798217773, -0.7236526608467102, 0.31936222314834595], [-1.0361436605453491, -0.24660688638687134, 0.342069536447525, -0.8815717697143555, -1.7654321193695068], [-0.3042879104614258, 0.6869856715202332, 0.20871463418006897, 0.011931282468140125, 0.38179662823677063], [0.9663158655166626, -0.14998632669448853, -0.7628501057624817, 0.7263036966323853, -1.7241829633712769], [1.089284896850586, 1.0247191190719604, -1.5084205865859985, -0.1343507170677185, -0.16799390316009521]], [[0.9492555856704712, -0.6124414801597595, 0.24627670645713806, 0.32706159353256226, -0.09199375659227371], [0.1017298474907875, 2.3329386711120605, -0.4991019368171692, -0.12691104412078857, -1.3515634536743164], [-0.6617749929428101, -0.07964009046554565, -0.561202883720398, -0.4376273453235626, 0.8111058473587036], [-0.4067491888999939, 0.2054489105939865, 0.6240644454956055, 1.5487427711486816, -2.51892352104187], [1.2324692010879517, -1.4621318578720093, 0.606701135635376, 0.14223237335681915, 0.5518547296524048]], [[-1.810187816619873, -0.23808687925338745, 0.4785688519477844, 0.5504144430160522, -0.4590066969394684], [-0.7984605431556702, 1.0733321905136108, -0.09101692587137222, -0.33741700649261475, -0.7008448243141174], [-1.4708731174468994, -1.2291853427886963, 2.562958002090454, 0.689612627029419, -1.7616558074951172], [0.11325516551733017, -0.4724545180797577, -1.1338731050491333, 1.48439621925354, 0.20736050605773926], [2.310732364654541, 0.19290195405483246, -1.1598271131515503, 0.8412352800369263, 0.5608896613121033]]], [[[0.43827563524246216, 0.8455700278282166, -0.17261902987957, 1.9696344137191772, 0.9498965740203857], [0.5279484987258911, -0.3313292860984802, -0.9813334941864014, 0.4295262396335602, -1.0986685752868652], [0.8885444402694702, 1.0337769985198975, 0.44294944405555725, -0.29780009388923645, 1.0962042808532715], [0.9063936471939087, 1.5388681888580322, -0.7331449389457703, 1.4125480651855469, 0.3857906758785248], [-0.5635700225830078, -0.36953505873680115, 0.3424686789512634, -1.5182548761367798, -0.5820492506027222]], [[1.0990276336669922, -0.21329669654369354, -0.9313887357711792, 1.1147023439407349, 0.3185228407382965], [-0.014492502436041832, -0.3613109290599823, -1.6000837087631226, -0.5681867599487305, -0.7182904481887817], [1.0157451629638672, -0.3041236996650696, 1.7085611820220947, -0.4443078935146332, 0.51249760389328], [1.0936663150787354, -0.8037613034248352, -0.8519655466079712, 0.7282146215438843, -0.40714332461357117], [-0.6018524169921875, -0.9754917025566101, -0.21854379773139954, -0.9109944105148315, -0.45811381936073303]], [[1.5544809103012085, 1.103688359260559, 0.12252391874790192, 0.14022165536880493, -0.8053261041641235], [-0.058480072766542435, 0.22403597831726074, 0.26594218611717224, 0.27803152799606323, 0.5002908706665039], [0.521016001701355, -0.07037776708602905, 0.31100356578826904, 1.5495177507400513, 0.06358183920383453], [-1.123921275138855, -0.6166923642158508, 0.2296106070280075, -0.13805843889713287, 0.895696759223938], [0.16039390861988068, 1.053337574005127, -0.9918100237846375, 0.45882758498191833, -0.8995348215103149]], [[-1.4324867725372314, 1.5253736972808838, 1.395959496498108, 0.051279082894325256, 0.8536517024040222], [1.1118398904800415, 1.2057867050170898, -1.4701213836669922, -1.1526561975479126, -1.3000651597976685], [-0.23204953968524933, -0.01802704855799675, 1.5561803579330444, -1.160019040107727, -0.955511748790741], [0.28891217708587646, -0.4695749878883362, -0.2721322774887085, -0.26500675082206726, 0.4978666305541992], [0.3567420542240143, 1.0413771867752075, 0.19532549381256104, 0.7283313274383545, -1.0010188817977905]]], [[[0.01352283451706171, -0.7713735699653625, 0.7993302941322327, 1.3155570030212402, -0.44366803765296936], [-0.988349974155426, -0.18423232436180115, -0.04549241438508034, -0.3160903751850128, 0.958570659160614], [1.5370185375213623, -0.4124961495399475, -1.4402953386306763, -0.11046016216278076, -0.08681868016719818], [1.6896226406097412, -0.877028226852417, -0.5418189167976379, -0.650676429271698, -0.40240079164505005], [1.2046700716018677, 1.946598768234253, 1.8010945320129395, 0.41131818294525146, -0.9687520265579224]], [[-0.4420618414878845, -0.7753652334213257, -0.87948077917099, -0.3217923045158386, 0.9766048789024353], [-0.7539516091346741, -0.2949438989162445, -0.7605666518211365, 0.7566145658493042, 0.996432900428772], [-0.9613802433013916, -1.3604260683059692, 1.150150179862976, -0.43305933475494385, 1.6078907251358032], [-0.2287568897008896, -2.1997954845428467, 1.1022331714630127, -0.2873525023460388, 0.7049461603164673], [0.35352185368537903, -0.6395013332366943, -1.1198203563690186, -1.6565477848052979, 0.895560085773468]], [[0.8810531497001648, 0.6821059584617615, 0.11852441728115082, 1.9601041078567505, 0.2940601110458374], [-1.6759796142578125, -0.0069620669819414616, -0.6073203682899475, 0.272276908159256, -0.6151424050331116], [-0.9053475856781006, -1.346793293952942, -0.02186192385852337, 2.0180442333221436, -0.711955189704895], [1.1965891122817993, 0.27814629673957825, 0.6837530136108398, -0.28875967860221863, -1.832574725151062], [0.5620900988578796, 0.39795124530792236, 0.49061912298202515, 0.35822272300720215, 0.05221389979124069]], [[1.1333996057510376, -1.0632039308547974, 1.7217944860458374, -0.16904529929161072, 0.14368608593940735], [-1.8101803064346313, 0.1120186522603035, 0.6050092577934265, 0.7296306490898132, -1.1784162521362305], [-0.4776625335216522, 0.9887691140174866, 0.4548910856246948, -1.1879600286483765, -1.5095138549804688], [-1.2529563903808594, 0.20910608768463135, -0.08434602618217468, -0.26699113845825195, -0.5994243025779724], [-0.20301122963428497, 1.2730886936187744, 0.4971262812614441, -2.0098628997802734, 0.8737649321556091]]], [[[0.5962307453155518, 0.5521628260612488, 0.45319533348083496, 0.9313024282455444, 0.7887210845947266], [0.2507418692111969, 0.92340487241745, -0.9747416377067566, 0.21129049360752106, 0.12082350999116898], [-0.19029000401496887, -1.389605164527893, 0.6763554811477661, 0.0036491085775196552, -0.04192313924431801], [1.896262288093567, 0.6443142890930176, 1.0499857664108276, 0.6042574048042297, 0.7922016978263855], [1.040082573890686, 1.6045875549316406, 0.6305282115936279, 0.4069959819316864, 0.4388633966445923]], [[-0.5355691313743591, -0.8557339310646057, 0.47751203179359436, 0.44791755080223083, -0.9332224726676941], [0.2577461004257202, 2.0640134811401367, 0.31997647881507874, -0.023994000628590584, -1.9428653717041016], [0.16124145686626434, -0.6191321015357971, 0.19553114473819733, -1.7211999893188477, -0.6055200099945068], [0.7624605894088745, -0.5292953848838806, -0.8919689655303955, 0.31820932030677795, 0.34141770005226135], [0.7379593849182129, -0.44074374437332153, 0.7781922817230225, 0.2526342272758484, -1.0577603578567505]], [[0.8252449035644531, -1.5330158472061157, 1.6178756952285767, -1.12050461769104, -0.6759454607963562], [-0.5542158484458923, 0.15874184668064117, -0.7795456647872925, 0.5696651935577393, 1.2917020320892334], [1.6533375978469849, 1.9939708709716797, 1.0905992984771729, -1.1215643882751465, -0.34645387530326843], [-0.20100802183151245, 0.6570857763290405, 0.5765476226806641, -1.0870670080184937, 0.7980004549026489], [0.0033009634353220463, -1.823241114616394, 1.6693172454833984, -0.31753072142601013, 1.1697951555252075]], [[-0.3205049932003021, 0.38050195574760437, -1.3132743835449219, -1.5612479448318481, -1.5695289373397827], [-1.8746918439865112, -1.092878818511963, -1.8947691917419434, -0.7018136978149414, -1.62646484375], [1.512076497077942, -1.1436951160430908, -2.3214352130889893, -0.9582358598709106, 0.4107881188392639], [0.5940395593643188, 1.0726873874664307, -0.5509834885597229, -1.433195948600769, -0.4504188001155853], [1.1140803098678589, -0.9147785902023315, -1.6864522695541382, -2.025296926498413, 1.2218482494354248]]], [[[1.493897795677185, 1.2898550033569336, 1.1856486797332764, -2.6938862800598145, -0.37520402669906616], [1.0851081609725952, 1.2875808477401733, -0.6029130220413208, -0.7614104747772217, -0.17984622716903687], [0.7318004965782166, 0.34339722990989685, -0.6484182476997375, 0.9884100556373596, 0.7592403292655945], [-0.9047858715057373, -0.477800577878952, 0.11054062098264694, -0.10172578692436218, 0.5223528742790222], [-0.12402579933404922, -0.9555413722991943, 1.2976974248886108, 0.8721506595611572, -2.3265342712402344]], [[0.8405062556266785, -2.7417829036712646, -1.457176923751831, 0.4071798622608185, 0.322287380695343], [-1.7702146768569946, 0.29021191596984863, 0.82540363073349, 3.165557384490967, 0.2860119342803955], [3.1915345191955566, -0.14876239001750946, -0.6173776984214783, 0.6246222853660583, 0.9840503931045532], [-0.5738162994384766, -0.7829203605651855, -0.7939424514770508, -3.106374979019165, 2.395552635192871], [0.12453749775886536, 0.38021790981292725, -1.46147620677948, 0.40414127707481384, -0.9490233063697815]], [[-0.7694438099861145, 1.07730233669281, 0.12127809226512909, 0.25779658555984497, 0.8120502233505249], [-0.6949308514595032, -0.11614123731851578, -2.5819361209869385, -1.5930372476577759, 0.4909804165363312], [-0.5861532688140869, 0.1888921856880188, -1.3149465322494507, -0.5697861313819885, -1.092628002166748], [-1.3386913537979126, 0.5006533861160278, -0.02087579295039177, 0.8022844195365906, -1.2132209539413452], [0.7055296301841736, 0.6214283108711243, -1.0326794385910034, 0.5701684951782227, -1.0966347455978394]], [[-0.4439838230609894, 0.47465482354164124, 1.008098840713501, -0.32998645305633545, 1.0628362894058228], [-0.13486117124557495, -0.027767915278673172, -0.5165048837661743, 0.8792113661766052, -0.40397244691848755], [-0.06871756911277771, -1.274814248085022, -0.15919369459152222, -1.365080714225769, 1.1347401142120361], [0.7388395667076111, 0.3845820724964142, -0.5286794900894165, 0.22165219485759735, -3.4663844108581543], [0.03120274655520916, -0.11063877493143082, 0.6602320075035095, -1.1373279094696045, 0.5513755083084106]]], [[[0.5276013612747192, -2.0342507362365723, -0.9151881337165833, 0.09837701916694641, 0.8502428531646729], [-1.0135903358459473, -1.4155685901641846, 2.4837937355041504, -2.1946985721588135, 1.1910709142684937], [0.5142402052879333, 1.2766047716140747, 0.06907683610916138, -0.07688388228416443, -0.6735042333602905], [1.2504746913909912, -0.21924671530723572, -0.2760465741157532, 1.5735938549041748, -0.1757677048444748], [-0.4146973788738251, 0.5375314354896545, 0.7169607281684875, 0.6273982524871826, -1.1553494930267334]], [[0.4142428934574127, 0.5718006491661072, 0.7573027610778809, -1.3046815395355225, -0.535597562789917], [-1.7534221410751343, 0.2747499644756317, -0.9502944350242615, 0.308518648147583, -0.21754144132137299], [-0.9109654426574707, 0.07933821529150009, 0.6126284599304199, 1.3354723453521729, -0.1440899819135666], [-1.708415150642395, -0.9950114488601685, 1.6700708866119385, -0.07761756330728531, -1.44772207736969], [1.2254942655563354, -1.426469326019287, -0.4065352976322174, 0.25160616636276245, -0.2712944746017456]], [[-1.7126407623291016, 0.6429151296615601, 0.30588510632514954, -1.97135329246521, 1.0737050771713257], [0.7119811773300171, 0.49622291326522827, -1.8007572889328003, -0.9115225076675415, 0.26220703125], [0.31509220600128174, -0.2594713568687439, 0.08699534833431244, -2.0262537002563477, 2.191084384918213], [1.5012089014053345, -2.01775860786438, -1.2831577062606812, -1.6693785190582275, 0.20877237617969513], [1.2347326278686523, -0.18542034924030304, 1.750556230545044, 0.8283982276916504, 0.4242124855518341]], [[1.532179355621338, 1.8583757877349854, -0.4372844696044922, -1.0764516592025757, -0.4209718108177185], [0.49151164293289185, 0.04140661656856537, -0.7478972673416138, 0.6205735206604004, 0.027887018397450447], [-0.9234952330589294, -2.0902979373931885, -1.3449190855026245, -2.1796457767486572, -1.8924248218536377], [-0.10925015062093735, -3.128401756286621, -0.79863440990448, 0.619418740272522, 0.07950226962566376], [-0.4744049608707428, 0.31820255517959595, 0.4374402165412903, -1.638041377067566, -0.7638264298439026]]], [[[0.189303919672966, -0.5092642307281494, -0.06497125327587128, -1.7499171495437622, 1.2050631046295166], [0.3424919843673706, 0.5066732168197632, 0.7615956664085388, -0.06170983240008354, -1.2444062232971191], [-0.27229321002960205, -0.8536702990531921, -2.3673031330108643, 0.9342940449714661, -1.614625096321106], [-0.018832311034202576, -1.4516270160675049, 0.13476979732513428, -0.1879938840866089, 1.2815802097320557], [0.9333264827728271, -1.2882263660430908, 0.8092424273490906, 0.7869405150413513, -0.5501713752746582]], [[1.9215731620788574, 0.20666874945163727, 0.40703725814819336, -1.0031434297561646, -0.006920592859387398], [1.3214572668075562, 1.0577329397201538, 0.05582805350422859, 0.22978118062019348, -0.6804571151733398], [-1.5168704986572266, -0.6850306987762451, -0.8503412008285522, -0.5554335117340088, 0.9307639002799988], [-0.7645471096038818, 0.3783731460571289, 0.15261703729629517, -0.9734067320823669, -1.4616552591323853], [-0.3099648356437683, 0.760879635810852, -2.9281985759735107, 0.25245851278305054, 0.353866845369339]], [[1.4373083114624023, 0.9441359639167786, 0.2619495093822479, 0.8840335011482239, -0.61015385389328], [1.942586898803711, 1.5491917133331299, -1.557043433189392, 2.2684338092803955, -1.0146374702453613], [1.3816909790039062, -0.23609890043735504, -1.499967336654663, 0.08772408962249756, -0.9223081469535828], [0.693094789981842, -0.636529803276062, 0.7018526196479797, 0.7526461482048035, 2.053797721862793], [-0.5568580627441406, 0.63986736536026, 2.2720565795898438, 0.49338698387145996, -1.4036493301391602]], [[1.219725489616394, -0.46783697605133057, 1.7197879552841187, 0.6532237529754639, -1.2727001905441284], [-0.7550450563430786, -0.23811207711696625, 0.729485273361206, -0.15173110365867615, -0.2004389613866806], [-1.3374278545379639, -0.9566217660903931, -0.09724318981170654, -0.1842195838689804, 2.5359697341918945], [2.5836477279663086, -0.8434838652610779, -1.8666458129882812, 0.9991297721862793, -1.5573011636734009], [-0.7919337749481201, -0.4987027943134308, -1.6431924104690552, 0.20805016160011292, 0.2453465461730957]]]], "bias": null}, "target": [[[[-2.0304698944091797]], [[-15.32349967956543]], [[-1.9309147596359253]], [[-1.625073790550232]], [[8.145402908325195]], [[9.10490894317627]], [[11.487885475158691]], [[-0.7246755957603455]]]], "log": "always", "log_config": "fail"}, {"message": "Conv2d test 3 - image dimensions", "func": "conv2d", "args": {"input": [[[[1.5505222082138062, 0.42575740814208984, 0.13822193443775177, 1.3104686737060547, 1.555163860321045, 0.7142748236656189, 0.264716237783432, -0.4306698441505432, -0.2523411512374878, -0.15944695472717285, -0.8908402323722839, -0.8609074354171753, -0.814189076423645, -0.6777539253234863, 0.7123123407363892, -0.6794177889823914, 0.9222232103347778, -0.13208970427513123, -0.074866384267807, -0.4699089229106903, 1.2597678899765015, 0.01983819156885147, 1.5353254079818726, -0.433436781167984, -0.8363118767738342, -0.8180632591247559, -0.26723700761795044, 0.6727975606918335, -0.2453325241804123, 0.82868891954422, 0.5045602917671204, 0.2784276008605957, -1.0744895935058594, 0.0851355493068695, -0.42962542176246643, -1.238653540611267, -0.18803030252456665, -0.7832390069961548, 0.3649553954601288, 1.115172266960144, -0.7432340383529663, 2.3413915634155273, -2.438812494277954, 0.6728658676147461, -1.312286376953125, 1.236443281173706, 0.4455130398273468, 1.4883357286453247, 1.0821986198425293, 0.48807284235954285, -0.9977518916130066, -0.24625256657600403, 0.9323435425758362, 3.1491739749908447, 1.083396553993225, -0.055448874831199646, 1.8326137065887451, -0.6646632552146912, -1.2872942686080933, 0.4970201551914215, 0.6779088377952576, 0.13498803973197937, -0.9273059964179993, 1.752556562423706], [0.7407625913619995, 0.8184830546379089, 1.6240196228027344, -1.0041749477386475, -0.22578413784503937, 0.6419867873191833, -0.10639698058366776, 0.6537973880767822, -1.9791226387023926, 1.600448489189148, 0.2610436677932739, -0.49415865540504456, -2.046226978302002, -0.8009307384490967, -0.05848979577422142, -1.4605456590652466, -0.48116785287857056, 1.2403295040130615, 1.3813883066177368, -0.26632699370384216, -1.8226733207702637, 1.5426747798919678, -1.0364599227905273, 1.8482569456100464, 0.06837906688451767, 1.0210496187210083, 0.0975581556558609, 1.55461585521698, -0.06083102896809578, -0.4044019877910614, -1.3673666715621948, -0.1371208131313324, 0.030858008190989494, -0.4317176342010498, -0.6010263562202454, -1.1419018507003784, 0.8441532850265503, 1.3916234970092773, 0.8375657796859741, -0.7370041608810425, -1.1709154844284058, 0.6139758229255676, 0.20327171683311462, 0.6119740009307861, 0.43949270248413086, -0.18730533123016357, 1.0150394439697266, -0.5911791324615479, -0.9844682812690735, -1.0997203588485718, 0.9746491312980652, -1.3135968446731567, -0.06485214829444885, 0.3956628739833832, -1.269744873046875, 0.22695940732955933, 0.36007869243621826, 0.7556838393211365, -0.7461252212524414, 0.21235229074954987, -1.263393759727478, -2.4446561336517334, 1.3161413669586182, 1.20187509059906], [-0.5059479475021362, 0.8804622292518616, -1.1537352800369263, 0.5541689991950989, -0.15407131612300873, -2.6155529022216797, 0.23643939197063446, 0.2083343267440796, -0.7607005834579468, 0.07351104170084, -1.060286283493042, -1.066954493522644, -0.6740080118179321, -1.0707077980041504, 0.047848042100667953, 0.010666579008102417, -0.2232142984867096, 1.5823031663894653, 1.6454720497131348, 0.7977387309074402, 0.7353959679603577, 0.3119380474090576, 0.34200072288513184, -0.5754361152648926, -0.3674115240573883, 1.2529484033584595, 1.5266308784484863, -1.3275518417358398, -0.8511436581611633, 0.014079946093261242, -0.22278404235839844, -0.12200751900672913, 1.0736831426620483, 0.3574550151824951, 0.6662461161613464, 0.3607211709022522, 0.740073025226593, 0.5500184893608093, -1.0792229175567627, 1.3374067544937134, 1.451486349105835, 0.28550511598587036, -1.5057250261306763, -1.4602926969528198, 0.8297740817070007, -2.434631586074829, 0.7387503385543823, 1.603646159172058, -0.9130379557609558, -0.43828466534614563, 1.7749924659729004, -0.16557417809963226, 0.34738361835479736, 0.40717190504074097, 0.5859906077384949, -0.8678861856460571, 0.006157892756164074, 0.8960685729980469, 1.045223593711853, -0.5929495692253113, -0.5983074307441711, 0.21571682393550873, 1.5477579832077026, 0.8403207659721375], [-0.4247564673423767, 1.315181851387024, 0.022947315126657486, 0.1756194829940796, 1.0726304054260254, -1.8683401346206665, 0.533148467540741, 0.5701444149017334, 1.1073771715164185, -0.7227922081947327, 0.14237254858016968, -0.8318940997123718, 0.27977243065834045, 0.6211758255958557, 0.4005085825920105, 0.22158977389335632, -0.2627626657485962, 0.6218851804733276, -0.8892486691474915, 0.25766146183013916, 1.0970723628997803, -1.2832144498825073, 1.5294010639190674, 0.4150133430957794, 0.08912582695484161, -1.658299446105957, 0.12238243967294693, 1.3075755834579468, -0.6883545517921448, -0.9559367895126343, 1.0428873300552368, 0.1768108308315277, 0.5332816243171692, 0.8938194513320923, -2.4313461780548096, -0.35447660088539124, 0.10326910763978958, -0.024321023374795914, 0.008372808806598186, 0.32288849353790283, -2.8604063987731934, 0.6071193218231201, 0.02506711520254612, -0.5988516807556152, -0.36467108130455017, -1.720583200454712, -0.22004514932632446, -0.7888894081115723, -0.47859910130500793, 0.20869331061840057, 0.4816570580005646, 1.3711775541305542, -0.505058228969574, 0.7555844187736511, 0.5342497825622559, 0.3011736571788788, 1.4913487434387207, -0.19171710312366486, -0.007808987982571125, 0.7272494435310364, 1.1852964162826538, -1.114935278892517, -0.16896574199199677, 0.578515887260437], [0.5510117411613464, -0.8092701435089111, -1.3704752922058105, -0.13000346720218658, 0.20839516818523407, -0.0731625184416771, 2.206101655960083, -1.1294105052947998, -0.5239810943603516, 0.8345189690589905, -0.36932581663131714, -3.1904828548431396, 0.691303551197052, 0.7376533150672913, 2.254885673522949, -0.062025975435972214, 0.8253286480903625, -0.24690844118595123, 0.18912239372730255, -0.7476500868797302, -1.272175669670105, 0.158808633685112, -0.02514427714049816, 0.021203957498073578, -0.5163958668708801, 1.0079952478408813, 0.630208432674408, -0.8134400844573975, -0.4428326487541199, 0.5732209086418152, -0.033609818667173386, -0.16409964859485626, 0.7385246157646179, 0.40061119198799133, 0.9122726321220398, -1.4234775304794312, 0.5637683272361755, 0.8717716336250305, 0.3499036729335785, 0.8986875414848328, -0.04675313085317612, -2.7182836532592773, -0.4889616072177887, 1.4238195419311523, -0.12956564128398895, -1.0212225914001465, -1.5600626468658447, -0.9271174073219299, 1.4241974353790283, 0.6973189115524292, 0.1621048003435135, 1.2025164365768433, 0.26414576172828674, 1.2705780267715454, 1.5420972108840942, 0.06551455706357956, -0.09279806166887283, 1.0882469415664673, -0.7244634628295898, 0.6822222471237183, -0.6118143200874329, 0.5440075993537903, 0.950768768787384, -1.7358338832855225], [-0.12617230415344238, -0.39153993129730225, 0.3823394179344177, 1.0516433715820312, -0.9962162375450134, 1.9955624341964722, -0.03826139494776726, -0.66059809923172, 0.04470137506723404, 0.4601735472679138, -1.2653706073760986, -1.4085609912872314, -0.3473159670829773, 0.6084098815917969, 0.7937179803848267, 0.8830452561378479, -0.6074419617652893, -0.08723347634077072, 1.5541070699691772, 0.5467836856842041, 0.1299588680267334, 0.11970740556716919, 0.3918328583240509, -0.3358354866504669, 0.7828046679496765, -0.4891858994960785, -0.6109074354171753, -1.7118089199066162, -0.6168043613433838, -0.6888006329536438, -0.9274422526359558, 1.013601541519165, 0.033011458814144135, -0.22759822010993958, 0.944947361946106, -0.7769094705581665, -0.37521466612815857, 1.218973994255066, -0.8123452663421631, 2.4515914916992188, 0.06248542666435242, 0.3618854582309723, -1.5518358945846558, 0.7989819049835205, -0.27197304368019104, 0.7430294752120972, 1.2929491996765137, -0.6117082834243774, 0.438432902097702, -0.6495420336723328, 0.21221259236335754, -0.2628883421421051, 0.18813404440879822, -0.28759387135505676, 0.551038384437561, -0.4702332019805908, -1.2389881610870361, 0.9845773577690125, -0.5034960508346558, 0.4063361585140228, -0.8052686452865601, 0.3333428204059601, 0.3269288241863251, 1.3883212804794312], [1.0574684143066406, -0.9093542098999023, -0.8562716841697693, 1.1165728569030762, -0.10660376399755478, -1.303438663482666, -0.4059527516365051, -0.32488131523132324, 0.22849920392036438, 0.7080065011978149, -1.3292253017425537, -1.4412962198257446, -0.4845074415206909, -0.44921478629112244, -1.7271877527236938, 0.20347119867801666, -0.9321799278259277, -0.8800697922706604, 0.25311070680618286, 0.5349583029747009, 3.242497205734253, 0.1895640641450882, 0.9557850956916809, 0.5233017206192017, 0.749243974685669, -0.7580838799476624, -0.12200187891721725, -0.951122522354126, -0.41688305139541626, -0.13457848131656647, -1.2264223098754883, -0.7021825909614563, -2.5998857021331787, -1.1768825054168701, -0.22884540259838104, -1.329010248184204, 1.138074517250061, 1.00575590133667, 0.7861324548721313, -1.1186809539794922, 0.8049564361572266, 1.3708163499832153, 0.33459803462028503, -0.5004186630249023, -0.1528264582157135, 0.9323744177818298, -1.431931734085083, 0.019681448116898537, -0.35125046968460083, -0.9443390965461731, 0.13336309790611267, 0.04087987169623375, -1.9380844831466675, -0.19168291985988617, -2.3938980102539062, -1.9780725240707397, -0.09199117869138718, 0.11160753667354584, 2.0362915992736816, 0.39600253105163574, -0.19141119718551636, 1.4165939092636108, 0.27589526772499084, 0.8571786880493164], [0.5537756085395813, 2.752490282058716, -1.0028362274169922, 0.33499014377593994, 1.7326416969299316, 1.556634783744812, -0.17562447488307953, 0.6296316385269165, -0.05469817295670509, 0.8601530194282532, 0.022808706387877464, 2.1012022495269775, 1.0061105489730835, -0.125188946723938, 0.4997391402721405, -1.8937573432922363, 0.6198924779891968, -0.3068644106388092, 0.5303016901016235, 1.9737379550933838, -0.5759195685386658, 0.11011848598718643, 1.2221838235855103, 2.160515785217285, -0.5326076149940491, 1.1335991621017456, -0.26282447576522827, 0.2863445281982422, 1.1686445474624634, -1.1323107481002808, 0.20419026911258698, 0.3814939260482788, -1.9732359647750854, 0.09569522738456726, -0.5642672181129456, -1.5633482933044434, 0.35480260848999023, -1.0553914308547974, 0.02739690989255905, 0.8272532820701599, -0.6176884174346924, 0.37905165553092957, -2.437727689743042, 0.1021738201379776, 0.6600252985954285, -0.2936527132987976, 0.3169122338294983, -0.3494362235069275, -0.9029926061630249, -0.005948803853243589, 0.21303588151931763, -0.4925267696380615, -0.6768256425857544, -0.30147093534469604, 0.5434619784355164, 0.7094190716743469, 1.045053243637085, -1.3925108909606934, 0.30466896295547485, -1.5122308731079102, -0.41781482100486755, 0.4252368211746216, 1.161742091178894, 1.1963026523590088], [-0.6847677826881409, 0.6453038454055786, 2.0441842079162598, -1.476601481437683, -0.6736961603164673, -0.11844129860401154, -0.7073470950126648, -0.6129835844039917, -0.999411404132843, -0.4257149398326874, 0.5564882755279541, 0.2641809284687042, 0.6492813229560852, 0.18934950232505798, 2.671173334121704, -0.621040940284729, 1.195926547050476, -0.26050394773483276, 0.3902350962162018, 0.934458315372467, -0.18547575175762177, 0.14135177433490753, 0.3178686797618866, -1.0672518014907837, 0.9445546865463257, -1.7838399410247803, 1.1664674282073975, -0.7523403763771057, 1.0824013948440552, 0.7300412654876709, 2.409233570098877, -0.8019328117370605, 0.4888821840286255, 0.5448035001754761, 1.5292803049087524, 0.5336462259292603, 0.9861350059509277, 1.0162612199783325, 0.005877095274627209, 0.8483295440673828, 0.847468912601471, -1.0679081678390503, 0.1695922613143921, -0.9458320140838623, 1.222456932067871, -0.15040762722492218, -0.39447668194770813, -0.4390335977077484, -0.07814531028270721, 1.4458931684494019, 1.1632938385009766, 1.2869384288787842, 0.35088640451431274, 1.1513553857803345, 1.2593247890472412, 1.0735087394714355, 0.8662832379341125, -0.04270462691783905, -0.5594660639762878, 0.3401707708835602, -0.5322464108467102, 0.03131302446126938, -0.24796850979328156, -2.1063594818115234], [-0.5007951259613037, 0.2347562164068222, 0.7305517196655273, 0.13963598012924194, -1.1072182655334473, 1.2537435293197632, 1.3458763360977173, -1.2931371927261353, 0.5803953409194946, 0.7625500559806824, 0.5959294438362122, 1.7958259582519531, 0.06836061179637909, 0.3694961369037628, -1.3092684745788574, 2.0415263175964355, -0.39275139570236206, -1.3786284923553467, 2.005948305130005, -0.9652155041694641, 1.134297490119934, 1.11670982837677, -0.3068753778934479, 0.3056166470050812, -0.31848886609077454, -1.11661958694458, 0.844519317150116, 0.1675800234079361, 0.40396684408187866, 0.27893736958503723, 0.14966703951358795, -1.635637640953064, 0.559113621711731, 0.11249325424432755, -0.051693085581064224, 1.3909891843795776, -0.6758111119270325, -1.8171695470809937, 0.09501990675926208, 0.9597187638282776, 0.7832866311073303, -1.1410831212997437, -0.34185314178466797, 0.7234810590744019, 1.1431915760040283, 0.22859793901443481, -0.8093947172164917, -0.7722961902618408, 1.311689853668213, -0.4044983386993408, -0.16089878976345062, 1.2248854637145996, 0.9172461628913879, -0.6106565594673157, 0.29484057426452637, -0.8011922836303711, -0.7545943856239319, 0.916008472442627, -0.006433246191591024, 0.36047080159187317, -0.06063886731863022, -1.099645733833313, -0.4276615083217621, 0.1557903289794922], [1.009140968322754, -0.6860882639884949, 0.5833925008773804, 1.7652186155319214, 0.26944607496261597, -1.4424771070480347, -0.706299364566803, 0.21986326575279236, 1.254822015762329, -1.0789964199066162, 0.1957419514656067, 0.7986723184585571, -0.12601779401302338, 0.38815662264823914, 0.5403922200202942, 0.14067257940769196, -0.5217176079750061, 0.6395938992500305, 0.49825119972229004, 0.2696107029914856, 0.46791771054267883, -0.7855559587478638, 1.561984658241272, -0.7371565103530884, 0.3406401574611664, 2.9123833179473877, -1.0938695669174194, -0.487835168838501, -0.6834031343460083, -0.2570371925830841, -0.27054184675216675, 1.2995202541351318, -0.8571570515632629, 0.504347562789917, -0.6013166308403015, -0.7205615639686584, 0.3067091703414917, 0.9732710719108582, -0.3827837407588959, -0.8087454438209534, -0.7793197631835938, -0.0747368261218071, 2.935481309890747, 0.9805236458778381, -1.727127194404602, -2.2893242835998535, -0.5181466341018677, -0.30589166283607483, 1.2482993602752686, -0.3302101790904999, -1.27300226688385, -1.505127191543579, 0.4608425199985504, 0.366092711687088, -0.5911665558815002, 0.8262701630592346, 1.5180244445800781, 1.0840206146240234, -1.039698839187622, -0.3723415434360504, -0.11805044114589691, -0.23911093175411224, -1.5852433443069458, 0.08173952251672745], [-1.1079668998718262, 1.3480873107910156, 1.7709676027297974, 1.0773241519927979, -0.9946164488792419, -0.3286830484867096, 1.0694775581359863, -0.4227716028690338, 0.8991296887397766, 0.6563048958778381, -0.3506811261177063, 1.3993263244628906, -0.19908173382282257, 0.09363777935504913, 2.8464787006378174, -1.3032349348068237, -0.3968031406402588, -0.553867518901825, -0.5672743320465088, 0.4402516782283783, 1.1227190494537354, 0.6679672598838806, -0.5098245739936829, 1.0766785144805908, 0.740455150604248, -0.12715594470500946, 0.5427222847938538, -0.4312009811401367, -0.668666660785675, 0.708274245262146, 0.7595608234405518, 0.6984797716140747, 0.001199632533825934, -0.6221790313720703, 0.6253794431686401, 0.26507553458213806, 0.8035570383071899, -2.2097818851470947, -0.8858108520507812, 0.4692169427871704, -0.2637093961238861, -0.275992214679718, 0.04738960787653923, -0.11982528865337372, -0.2067071795463562, 0.1282869577407837, 0.8397019505500793, -1.8959232568740845, -0.5039887428283691, -1.281992793083191, 0.2775185704231262, -0.5546280145645142, -1.8636150360107422, -1.419006586074829, -0.4532611668109894, -0.7547012567520142, -1.133520245552063, 0.7547744512557983, 0.05985867977142334, -0.5985995531082153, 0.8654240369796753, 0.536845326423645, 0.2822597920894623, 1.6537550687789917], [1.4779499769210815, -0.8384573459625244, -0.692539632320404, -1.1125496625900269, 0.5712547898292542, 0.8800647258758545, 0.308750718832016, -1.2690385580062866, 0.31854817271232605, -0.8000068068504333, -1.2965755462646484, 0.8850623369216919, 0.11801685392856598, -0.8882084488868713, -1.518449068069458, 0.8031497597694397, -0.5686375498771667, 1.9769723415374756, 1.560831069946289, 0.21532873809337616, -0.13368980586528778, 2.223393678665161, -0.03536101430654526, -0.3285785913467407, 0.3691787123680115, 1.008273720741272, -0.9868001341819763, -1.3234304189682007, 0.31460636854171753, -0.05931577831506729, -0.7118574976921082, -0.20792755484580994, 0.618985116481781, -0.33344197273254395, -0.038162633776664734, -0.7056005597114563, 0.9517685174942017, -0.7658183574676514, 0.4689424932003021, 0.5012704730033875, -1.4865864515304565, -0.31289738416671753, -1.2909141778945923, -0.37225914001464844, -0.7110604643821716, 0.03067605383694172, 1.3090020418167114, -0.7562952637672424, 0.39112362265586853, -0.7221271991729736, 0.08786796033382416, -0.7315988540649414, 0.26071396470069885, -1.1039600372314453, -1.2232251167297363, 1.1879515647888184, -2.296668767929077, 0.03567279502749443, -2.2100608348846436, -0.34560298919677734, 0.33556506037712097, -1.0592979192733765, -2.337299346923828, 0.6649174094200134], [0.37648293375968933, 0.8586786389350891, -0.1722545027732849, -1.081192970275879, 0.7526609897613525, 2.2940752506256104, 0.49286070466041565, -0.15425707399845123, -0.6895357370376587, 0.015032240189611912, -0.50416499376297, -0.9549850225448608, 0.4594842791557312, -0.44610053300857544, 0.6900891065597534, 0.3199828863143921, -2.071183681488037, -0.6094692945480347, -0.21546435356140137, -0.7861368656158447, 1.3942124843597412, -0.03187201917171478, 0.0033539950381964445, -0.5698906779289246, -0.7474954724311829, -0.9231776595115662, -1.402239441871643, -0.5098692178726196, 1.2514148950576782, 0.4274674654006958, -1.129019021987915, -0.4464491009712219, 2.1192829608917236, -0.3336963653564453, -1.6655796766281128, 0.010945701040327549, -0.5348317623138428, -0.24901016056537628, -0.8643304109573364, 0.5842863917350769, 1.9932467937469482, 0.02475087344646454, -0.8325234651565552, -0.9199138879776001, 0.06727218627929688, 1.0031077861785889, 1.994917869567871, -0.23693540692329407, 0.48733484745025635, -0.981046736240387, -0.3229497969150543, 1.1002452373504639, -0.35495781898498535, -0.32999762892723083, -0.5489117503166199, 0.1283472180366516, 0.6698989272117615, -1.430128812789917, -0.013145471923053265, 1.0571867227554321, -1.0241032838821411, -1.7172739505767822, -1.5501611232757568, -0.9208469390869141], [-0.09407157450914383, -0.7400652170181274, -0.4417353570461273, -0.7345618605613708, -0.43539807200431824, -0.8757421970367432, -0.18563564121723175, 0.8340302109718323, 0.30462291836738586, 0.6174499988555908, -1.3672211170196533, -1.3776880502700806, -1.1413739919662476, -2.0430612564086914, 0.2957726716995239, 0.032416392117738724, -0.013416536152362823, 0.20582878589630127, 1.8245621919631958, 1.7570773363113403, -0.04662039875984192, 0.05932747200131416, -0.5626357793807983, 0.3211989104747772, 0.49049603939056396, 0.19663061201572418, -1.4110636711120605, -0.14596234261989594, -1.7625467777252197, -1.058324933052063, -0.8670300245285034, 2.6651268005371094, 0.8971901535987854, -0.10545337200164795, 0.06021244823932648, -0.42897021770477295, 0.7468876838684082, -1.0182499885559082, 1.9100863933563232, 0.588046669960022, 1.0334465503692627, 0.23274150490760803, 0.12893249094486237, -1.3953499794006348, -1.1124870777130127, -1.8614271879196167, 0.7800267934799194, 1.1442468166351318, 0.6764950156211853, -0.3855438232421875, 0.8714416027069092, -2.0232303142547607, 0.46110624074935913, -1.582897663116455, -1.5597496032714844, -1.6996403932571411, 0.5236530900001526, -0.06471895426511765, 0.8520383238792419, 1.2118234634399414, 0.7574430704116821, 0.8313871622085571, -0.272988498210907, 0.68660569190979], [-0.7540359497070312, -0.5182684659957886, 0.10250278562307358, 1.3602107763290405, -1.765794038772583, -0.5675632953643799, -0.9325968623161316, 1.1109530925750732, 0.2207193225622177, -0.6906901597976685, -0.03575824201107025, -0.3297717869281769, -1.7876673936843872, -1.4038136005401611, 0.24880896508693695, 0.34672391414642334, 0.003420870518311858, 0.8363157510757446, 0.4593139588832855, -0.8099902272224426, 0.25468385219573975, 0.7217153310775757, -0.7830326557159424, 0.524415910243988, -0.978855550289154, -0.2883073091506958, -0.9977271556854248, 0.027396252378821373, -0.32680192589759827, 1.1574963331222534, -0.4581725001335144, -0.7237553000450134, -1.1585720777511597, 0.010453480295836926, 0.3155578672885895, 1.2390118837356567, 2.115866184234619, 0.3193105161190033, 0.05905156582593918, -0.219504252076149, 0.13065436482429504, 0.9453197717666626, 0.9578539133071899, -1.4488327503204346, 0.30680957436561584, -0.5604674220085144, -0.6977696418762207, -0.5170660018920898, 0.5867613554000854, -1.7699875831604004, 0.24551168084144592, -0.1824643611907959, 0.5161224603652954, -2.0908360481262207, -0.12530429661273956, 0.28929370641708374, -0.7676094174385071, 2.52841854095459, -1.5784127712249756, -0.14287255704402924, 1.3063602447509766, 0.7273264527320862, 0.31495964527130127, 0.11087298393249512], [-0.6288240551948547, 1.3217722177505493, 2.2201554775238037, -1.0560475587844849, -0.14311163127422333, 0.8765841126441956, 0.8862242698669434, -1.2372242212295532, -0.6330029368400574, -0.7927923202514648, -0.8402033448219299, 1.333685278892517, 0.9078688621520996, -1.612892985343933, -0.6814119219779968, 0.021594122052192688, 1.2184317111968994, 1.2874740362167358, -0.7083130478858948, 1.3115389347076416, -0.6746671795845032, -1.577468752861023, -0.14891307055950165, 1.532558560371399, 0.695136308670044, -0.3860584795475006, -0.02233898639678955, 0.6242393255233765, 0.11907190084457397, -0.19881892204284668, -0.9226877689361572, 0.7664162516593933, -0.6451308727264404, 0.5931600332260132, -0.4023473858833313, 0.9020838141441345, 0.7221633791923523, 1.1473515033721924, 0.898206353187561, -1.2183773517608643, -0.19882462918758392, -0.7492985725402832, -0.845146119594574, -2.070922613143921, -0.12046913057565689, 0.32622888684272766, -0.40348368883132935, 2.6232237815856934, -1.0896904468536377, 0.04155917838215828, -0.33517226576805115, 0.6092562675476074, -0.4690730571746826, -1.1407053470611572, 0.13051699101924896, -0.5299919247627258, 0.19699428975582123, -1.4406222105026245, 0.3634229004383087, 0.7596483826637268, 0.8680145144462585, -1.0943115949630737, 0.07002569735050201, 0.3423182964324951], [-1.25743567943573, -0.4558844566345215, -1.1667237281799316, -1.1679092645645142, -0.4396253824234009, 1.203906536102295, 0.2871577739715576, 1.3568978309631348, -0.23404625058174133, -0.3770628571510315, 0.4554130434989929, 0.3836198151111603, 1.6935431957244873, 0.37647461891174316, -0.5651879906654358, 1.342057466506958, 0.48114627599716187, -1.2563445568084717, -0.8959363102912903, -0.7892007827758789, -0.8083605170249939, -0.30284568667411804, 1.502465009689331, 1.0004976987838745, 0.6460347771644592, 0.05369170382618904, -0.31185784935951233, -0.7675096392631531, 1.2931041717529297, 0.37877270579338074, -1.480883240699768, -0.16194212436676025, 1.0768896341323853, -0.18279148638248444, 0.7047834992408752, 0.2962428033351898, -1.3363879919052124, -0.2020169198513031, -1.674389123916626, 0.4400325417518616, -1.8561803102493286, -0.22235643863677979, -0.2121948003768921, 1.504778504371643, 0.6942628622055054, -0.6206048727035522, -0.9122500419616699, -1.2680352926254272, -0.10778793692588806, -1.5595570802688599, -0.3567337691783905, 0.12478109449148178, 1.8430842161178589, -0.597294270992279, 0.09387823939323425, -1.2551147937774658, -1.0104141235351562, -0.04023408889770508, -3.119365930557251, 0.13927188515663147, -1.379058599472046, 0.5405589938163757, -1.5225127935409546, -0.40678882598876953], [-0.3295133113861084, 0.39333784580230713, 0.1233765184879303, 1.1227242946624756, 0.18959280848503113, 1.4179579019546509, 1.315570592880249, 1.7085952758789062, 0.4116344451904297, -0.7305005192756653, -0.7765905857086182, 0.017144659534096718, -1.9418288469314575, 0.08796652406454086, 1.8456512689590454, -1.3510653972625732, -0.8573228120803833, 1.5045310258865356, -0.11996510624885559, 0.685876727104187, -0.15662673115730286, -1.264406681060791, 0.8571436405181885, 1.1138503551483154, 0.5288355946540833, 0.5445120334625244, -1.5661611557006836, 1.0097198486328125, 0.6793323755264282, -0.5893635749816895, -0.3016457259654999, 0.2615630030632019, 1.342282772064209, 1.2345786094665527, 0.16708257794380188, -0.8199256062507629, -0.2580985128879547, 0.18641969561576843, 0.09654662013053894, -0.36743125319480896, -0.18682484328746796, 0.006132772192358971, -0.4134766757488251, 0.6274511218070984, 0.6935620307922363, 0.6439907550811768, 0.37039822340011597, 0.7859764099121094, -0.7210217714309692, 1.6835508346557617, 0.9961748123168945, -0.3509240448474884, -0.38482990860939026, -0.956544041633606, 0.6437966823577881, -0.8396503925323486, 1.735251784324646, 1.0242966413497925, -0.017166124656796455, 1.1025487184524536, 2.576948404312134, -0.7577052116394043, 0.48021000623703003, -0.5162770748138428], [0.10597681254148483, -0.44738346338272095, -0.9265617728233337, -1.688724160194397, 0.5969910621643066, 0.799487292766571, 0.19043301045894623, 1.1807066202163696, -0.5082715153694153, 0.407355397939682, 0.4778650104999542, 0.5217481255531311, -0.5531271696090698, 0.5824982523918152, -0.45959019660949707, 0.6996757984161377, 0.32874608039855957, -0.5593026280403137, 0.3170287013053894, 1.6945395469665527, 0.9943619966506958, 1.4110817909240723, 0.07953829318284988, -0.29524660110473633, -0.8467744588851929, 0.08535391837358475, 0.4249824583530426, 0.47584521770477295, -0.777446448802948, 0.8407975435256958, -0.7646619081497192, -2.046160936355591, 1.176945686340332, -0.2723392844200134, 1.2137573957443237, -1.6026567220687866, -1.5853745937347412, -1.4184796810150146, -1.2676022052764893, 0.5701084136962891, -1.6713804006576538, -0.6456529498100281, 1.100352168083191, -0.11927109956741333, -1.9226828813552856, 0.694270133972168, -0.08233392238616943, 0.2747892737388611, 1.0016841888427734, 0.6863464713096619, 0.7059944868087769, 0.1334218978881836, -1.0518547296524048, 0.03765017166733742, 0.5356581211090088, -0.07854542136192322, -2.5103933811187744, -0.2311992049217224, -0.05852808803319931, 0.16084247827529907, -0.9518465399742126, -0.9122505784034729, -1.7370004653930664, -0.47924643754959106], [-1.552396297454834, 0.6068719029426575, -0.13947880268096924, -0.7166936993598938, 1.4078551530838013, 1.9798966646194458, -0.8206568956375122, 2.974579334259033, -0.20153363049030304, 0.7789003849029541, 0.39970454573631287, 0.5591573119163513, 1.2462719678878784, -0.29928988218307495, -0.20866410434246063, -1.7897065877914429, -0.40312325954437256, 0.029561243951320648, 0.32242122292518616, 0.8408768773078918, 0.7924413084983826, 0.7656553387641907, 1.8707362413406372, 0.2623876929283142, -0.5044631958007812, 0.878244161605835, -0.5403000116348267, -0.5140488147735596, -0.8806183934211731, 0.3326183259487152, -0.5894250869750977, -0.4889126718044281, 0.441108763217926, 0.3236117660999298, -1.2804923057556152, -0.1629708707332611, -1.330113172531128, -0.3330304026603699, 1.3555208444595337, 0.691244900226593, 0.22428271174430847, -0.975962221622467, 0.25171172618865967, 0.48608916997909546, -0.9161832332611084, 0.06514129787683487, -0.12223479151725769, 1.4798790216445923, 1.366970181465149, 1.2158476114273071, -0.2710880637168884, -0.6977020502090454, 2.063361406326294, -0.12106646597385406, 0.12840420007705688, 0.39051002264022827, 0.09187247604131699, -0.5154911279678345, -1.8161245584487915, 0.8647598028182983, 0.03514312580227852, 0.45388537645339966, 0.7175665497779846, -1.8401365280151367], [-1.7576898336410522, 0.08702974021434784, -0.45586392283439636, 0.3393622934818268, 0.9645293354988098, -1.2960623502731323, 0.02179950475692749, -0.1001812070608139, -0.9707949161529541, -0.7170854806900024, -0.6964716911315918, 0.33209097385406494, 0.7271512746810913, 0.42385128140449524, 1.056401252746582, -0.7059921622276306, -0.3473736643791199, 0.8773889541625977, 2.6127684116363525, 1.3508917093276978, 0.14438053965568542, -0.37564530968666077, 1.9750745296478271, -0.49010738730430603, 0.8792901039123535, 1.6020622253417969, -0.4498460590839386, 1.4954265356063843, 0.5827351808547974, 1.3036452531814575, -0.9866582155227661, -1.6768171787261963, -0.11505158990621567, 1.4360812902450562, -0.22443796694278717, -0.12983150780200958, -1.000576138496399, -1.23868727684021, 0.06092092767357826, -1.4255057573318481, 0.13309438526630402, -0.10838177055120468, 1.7848070859909058, -1.4832239151000977, 0.430667519569397, 1.3174241781234741, -0.6190258860588074, 0.7945157289505005, -1.2698878049850464, 0.26798588037490845, -1.1677151918411255, -0.3512943387031555, 0.5519419312477112, 0.6411848068237305, -1.0849053859710693, -0.4420357942581177, -0.8905237913131714, -0.21381035447120667, -0.3493904173374176, -0.40975043177604675, -1.0100091695785522, 1.4483634233474731, -0.6728968620300293, 0.2536710500717163], [-0.6249058246612549, 0.426560640335083, -0.15692196786403656, 1.9201997518539429, -1.2986140251159668, 1.4304572343826294, 0.5468469262123108, 0.6694852113723755, -0.2919296324253082, 0.269626647233963, -0.757138192653656, -0.9497916102409363, -1.8429182767868042, -1.8296513557434082, 1.0497305393218994, 0.10038240253925323, 1.001818299293518, -0.013731295242905617, 0.37870752811431885, -0.4071248471736908, 0.41493329405784607, 0.7793147563934326, 1.5169036388397217, 1.0060631036758423, -0.8330409526824951, -1.7266924381256104, -0.0052570076659321785, 1.3218501806259155, 1.6670161485671997, 1.2283610105514526, 0.8138809204101562, -0.48378482460975647, 1.6491408348083496, -0.18046511709690094, 0.31683069467544556, 0.3031233847141266, 2.2125895023345947, 0.2086353749036789, -1.5779979228973389, 0.9047695994377136, 1.1489020586013794, 0.41565901041030884, 0.422396719455719, -0.36810314655303955, -0.3728484511375427, 0.12205986678600311, 0.8165009617805481, -0.29708757996559143, 1.08041512966156, -0.14493776857852936, 0.9943819642066956, 0.20094266533851624, 0.27682071924209595, -0.45961183309555054, 1.0378655195236206, -1.3057670593261719, 0.14471635222434998, 2.7253267765045166, 0.4827159643173218, -0.12799599766731262, 2.4007067680358887, 1.0272400379180908, -0.2764863073825836, 0.08749815821647644], [1.0252217054367065, -1.6450270414352417, 0.40299010276794434, -0.6728014945983887, 0.6913049221038818, -0.2706837058067322, 1.5217199325561523, 1.32429838180542, 0.5557478666305542, -0.10619207471609116, -0.2183687388896942, -0.2192051261663437, 0.5229350924491882, 0.17398053407669067, 0.5176367163658142, -0.23346106708049774, -0.11230165511369705, 0.7786751985549927, -0.44478532671928406, -0.15762291848659515, -0.5627597570419312, -0.7757182121276855, 0.45477139949798584, -1.6922862529754639, 0.9026698470115662, -0.7824957966804504, 0.2694527506828308, 1.483413577079773, -0.2912164628505707, 0.14724983274936676, 0.7172688841819763, 0.30774232745170593, 0.023338111117482185, -1.7635866403579712, 0.0192886795848608, 1.0231125354766846, 0.18738384544849396, 0.3451564311981201, 1.568800926208496, -0.2388366162776947, -1.4321433305740356, -1.3718844652175903, -0.04688878729939461, 1.4362330436706543, 0.2992829978466034, -1.4640939235687256, 1.5379197597503662, 0.9344475865364075, 0.20395857095718384, 0.2812764644622803, 0.8778379559516907, 0.07760061323642731, -0.21240226924419403, 0.7407776117324829, -0.6843327879905701, -1.2900993824005127, 0.4893296957015991, 0.25978875160217285, 0.04221523925662041, -1.3157199621200562, -1.3766435384750366, 1.5261088609695435, -0.47215181589126587, -0.4824233651161194], [0.6238541007041931, 0.6004087328910828, -0.34734266996383667, -0.06144079566001892, 1.0881611108779907, 0.9892780184745789, -0.6545262336730957, -1.208298683166504, -1.59018075466156, -1.1943657398223877, -0.4417657256126404, -0.5636737942695618, 1.317549228668213, 1.5927990674972534, -0.31494104862213135, -2.025264263153076, 0.3518848121166229, -0.7879859805107117, 0.483374685049057, 0.259836345911026, 1.9230397939682007, 0.7871679067611694, -1.195435643196106, -1.3225120306015015, 0.08222822844982147, 0.3256744146347046, -1.200265884399414, -0.09914712607860565, 0.25258371233940125, -0.8944530487060547, 1.0604501962661743, 0.05118059366941452, 0.04521321877837181, 1.306459665298462, -1.546789526939392, 0.33677056431770325, -0.37200218439102173, 0.20102287828922272, -0.7402995824813843, -1.2695519924163818, 1.7176527976989746, 0.31820619106292725, 1.7875769138336182, 1.9054596424102783, 0.9357233047485352, 0.7825027108192444, -0.6752673387527466, -0.27771440148353577, 2.112506151199341, 0.2997976839542389, 1.2737312316894531, -0.5759604573249817, 0.07432381808757782, 0.6955915093421936, -0.9677470326423645, -0.4126844108104706, -0.11921955645084381, 0.2234422266483307, -0.32610511779785156, -0.7585656046867371, 2.01053786277771, 0.4463329315185547, 0.16691239178180695, -2.23807430267334], [-0.07642412185668945, 0.2996217608451843, -0.10160420835018158, -1.2119590044021606, -0.7858051061630249, -0.6202763319015503, 1.1667917966842651, 1.1706066131591797, 0.7707504630088806, 1.3975132703781128, 0.2088281512260437, 0.722613513469696, -1.916550874710083, -0.18425093591213226, 1.161900281906128, 2.0692691802978516, 0.41132593154907227, 1.0189493894577026, -0.9130463600158691, 0.33295968174934387, 0.3659365475177765, -0.6192091703414917, 0.8687911629676819, -1.1037262678146362, 0.4152655303478241, -0.28928253054618835, -0.7976003289222717, -0.6170414090156555, -0.6001386642456055, 0.5232015252113342, -0.7041813135147095, -0.0837029293179512, 1.8024488687515259, -2.267160654067993, 1.2998731136322021, 0.16117644309997559, 1.9643781185150146, 0.8165940046310425, 1.557950496673584, 0.3622821271419525, 0.7914338111877441, -0.2512076199054718, -0.7383448481559753, -1.3908902406692505, -0.8276408910751343, -0.9953100085258484, -1.0361758470535278, -0.1448693573474884, -0.31287404894828796, 1.3505756855010986, -0.4104773998260498, -1.305838942527771, -0.41152140498161316, 0.3513434827327728, -0.37645894289016724, -0.2119370400905609, 0.1523636430501938, -0.5037586092948914, -0.1541384905576706, 0.6258000135421753, 1.5573689937591553, -0.8988628387451172, -0.5480619072914124, -0.8354315161705017], [0.5026046633720398, -0.008682186715304852, -1.3212827444076538, 2.0308761596679688, 0.5123096108436584, 1.1603822708129883, 0.6985968947410583, 0.7436373829841614, -0.19774048030376434, -1.2515537738800049, -2.7753677368164062, -0.17577752470970154, -0.25155672430992126, -0.7239760160446167, -0.12418554723262787, 0.23690010607242584, 1.35626220703125, 0.5537736415863037, 1.0625189542770386, -0.5222455859184265, 0.90849369764328, 1.1180239915847778, 0.42756426334381104, 1.121160864830017, 0.0969996526837349, 0.8707308173179626, -1.950793743133545, -1.8018159866333008, 0.7453811764717102, -1.1570454835891724, -0.8641861081123352, -0.11497607082128525, -0.3780173659324646, -0.13320353627204895, 2.302919387817383, 0.5665508508682251, 0.014644832350313663, -1.4970712661743164, 1.2032372951507568, -1.7148183584213257, 1.5361462831497192, -0.07565109431743622, -0.030699290335178375, -0.45327937602996826, 1.1117421388626099, 2.2305800914764404, 0.025188876315951347, 0.678144633769989, -0.8476582765579224, 0.9471045732498169, -1.0513371229171753, -0.6817269921302795, 0.15182283520698547, 0.17255795001983643, 0.7386392951011658, 1.1694121360778809, 2.7650208473205566, 0.9513878226280212, 0.3636150360107422, -1.1954668760299683, 0.26989227533340454, -1.159113883972168, -0.06837262958288193, -1.4256174564361572], [1.5522021055221558, 0.022442471235990524, 0.3995969295501709, -0.6158657670021057, -1.157910704612732, -0.6168239116668701, -0.7961873412132263, 0.4430316686630249, 0.6792070269584656, -0.613018274307251, -2.2526822090148926, 0.1552000790834427, 0.7586949467658997, 0.00422761170193553, -0.6035122275352478, -0.24173767864704132, 1.005733609199524, 0.21704784035682678, -0.534235417842865, -0.6399621963500977, -0.29382163286209106, -1.128570795059204, -0.33390602469444275, -0.6826217174530029, 1.5175621509552002, -0.768118143081665, 1.3466876745224, -0.5889701247215271, -0.7389389276504517, 1.191111445426941, -0.4318307936191559, 0.03794645518064499, -0.43879401683807373, 1.6222102642059326, 0.8904693722724915, -0.15685687959194183, 0.42396172881126404, -0.4037756025791168, 0.06230677664279938, 0.28232455253601074, 2.1021132469177246, 0.3553486466407776, -1.4529484510421753, 0.6831590533256531, -0.35981014370918274, -0.19180592894554138, 0.9893351197242737, 0.17349345982074738, -0.34694820642471313, 1.061627984046936, 0.24431799352169037, -1.7798813581466675, 2.013077974319458, 0.11102143675088882, -0.1288929581642151, -0.8822815418243408, -1.1636193990707397, -0.7367377281188965, 0.8196775913238525, -0.13264335691928864, 1.6391899585723877, 1.030755877494812, -1.5766150951385498, -0.7637394070625305], [1.5009514093399048, -0.03208235278725624, -1.1505533456802368, -1.5109535455703735, 0.7984916567802429, 1.1934767961502075, -0.0471673309803009, -0.9403585195541382, -1.2293918132781982, 2.1896533966064453, 0.43140316009521484, -0.8718038201332092, 0.39852166175842285, -0.23801784217357635, 0.09976528584957123, 0.7342954874038696, 0.6471906900405884, 0.18552419543266296, -0.18255986273288727, 0.19975493848323822, -1.0652040243148804, -1.949877381324768, -2.222379207611084, 0.3985913097858429, -0.05658316984772682, -1.9071342945098877, 0.5483735203742981, -1.2014753818511963, 0.5704670548439026, -2.008404493331909, 1.3744165897369385, -0.9908624887466431, 0.029851559549570084, -1.4903470277786255, 0.968772828578949, -0.6205145120620728, 0.14286507666110992, 0.5373967885971069, -2.5703601837158203, -0.6035347580909729, -0.6759284734725952, -1.051995873451233, 0.19768936932086945, -1.2365761995315552, -0.47473621368408203, -1.2133963108062744, 0.32867178320884705, 0.42306748032569885, -0.4286687672138214, -0.28055042028427124, -0.19754944741725922, -0.29584839940071106, -0.8555020689964294, -0.2413470596075058, 1.4003775119781494, -1.4806970357894897, -0.8536956906318665, -1.658820629119873, 0.17752738296985626, -1.0756934881210327, -0.1893359124660492, 1.168743371963501, -0.6215590238571167, -1.256469964981079], [0.7247331142425537, -0.5099318623542786, -0.2436669021844864, -0.9819057583808899, 0.11600344628095627, -0.021798858419060707, 0.3684510290622711, -0.8018200397491455, 0.7605417966842651, 0.45802944898605347, 0.2047109156847, 1.9010748863220215, -0.7829965949058533, 2.0212035179138184, -1.3655411005020142, 0.3245612382888794, 0.0864066407084465, 0.5480049252510071, 1.4837024211883545, -0.0626298114657402, 0.6669183969497681, -0.6856174468994141, 1.1593786478042603, -0.6152325868606567, -1.0900579690933228, 0.7715495824813843, -1.6631542444229126, -0.2228051722049713, 0.4916136860847473, -0.25645753741264343, 0.12162766605615616, -1.7477680444717407, 0.5893810987472534, 0.9097543954849243, 2.394667625427246, -0.20823702216148376, 0.19984932243824005, 0.4308299720287323, 0.13129490613937378, 1.1246885061264038, 1.0261024236679077, -0.30817198753356934, -1.9997233152389526, 0.31989675760269165, -0.3801533579826355, 0.8500933647155762, 1.0732542276382446, -0.19507001340389252, 0.3484964370727539, -0.3742189407348633, -1.8795113563537598, 0.2808903753757477, 0.3457082211971283, 0.2939225733280182, 1.0026471614837646, 1.2030668258666992, -0.8771775960922241, 0.5280162692070007, 2.615661382675171, -0.4024141728878021, 0.8543727993965149, 1.7171943187713623, 1.5155613422393799, 0.008767543360590935], [0.9572247266769409, -1.1214358806610107, -0.6298930048942566, 0.34347212314605713, -0.9894979000091553, 0.5215796232223511, -0.36824414134025574, -1.8654377460479736, 1.5771347284317017, -1.0860614776611328, 1.4301865100860596, -0.8084190487861633, -2.1097517013549805, 1.3536312580108643, -0.14273419976234436, 0.07662258297204971, 0.7091328501701355, 0.5808736085891724, -0.8907457590103149, 0.7972863912582397, 0.9382215142250061, -1.5843334197998047, -0.6184265613555908, -1.7505625486373901, -1.6947420835494995, -0.5974266529083252, -1.1467467546463013, 1.124131441116333, -0.5080856680870056, 1.2088524103164673, 0.718159019947052, -0.4455035626888275, -0.6646920442581177, -0.5646306276321411, -1.4918081760406494, -0.5016630291938782, 0.7909371852874756, -1.6423531770706177, -0.21387715637683868, 0.02999390847980976, -0.13017410039901733, -1.0828087329864502, -0.07014992833137512, 0.38932937383651733, 0.17479215562343597, -1.3558908700942993, -0.5714109539985657, -0.9064659476280212, 0.7568761110305786, 0.9935581684112549, 0.7723463773727417, 0.8391219973564148, 1.3607451915740967, 1.8519583940505981, 0.5386841297149658, -1.0594630241394043, 1.5171799659729004, 3.2585766315460205, -1.9369614124298096, -0.28867319226264954, -1.611572027206421, -1.017011046409607, -1.170103669166565, -0.7005160450935364], [0.119428351521492, -0.49949362874031067, 2.0838685035705566, 0.9496093392372131, -2.279548168182373, -0.9768813252449036, 1.8202555179595947, 2.0120010375976562, -1.0320837497711182, 1.223099708557129, -0.4650880992412567, 0.9240581393241882, -0.6976304650306702, -0.948828935623169, 1.032932996749878, -0.20010745525360107, 1.7678053379058838, 1.2806003093719482, -0.8171268701553345, -0.7636569142341614, -0.15264052152633667, -0.7275883555412292, 0.8861201405525208, -0.015968602150678635, -1.0341742038726807, -0.8417498469352722, 0.3508399724960327, 1.3611276149749756, 0.015542310662567616, 1.2999558448791504, -0.08611287921667099, 0.9673474431037903, -1.15664803981781, 0.7779802680015564, 0.9298504590988159, 0.538137674331665, -0.008731967769563198, 0.8891611099243164, -0.04647922143340111, 1.2437008619308472, -0.8030350208282471, -0.7502654790878296, 0.42162951827049255, 0.22526496648788452, -0.6512958407402039, -0.3198781907558441, -2.4459750652313232, 1.074448823928833, 0.41519689559936523, -1.0501999855041504, -1.1916863918304443, -0.8640229105949402, 1.2295001745224, 1.1260284185409546, 0.00854126363992691, -0.6395767331123352, 1.1031339168548584, 0.18943482637405396, -0.5271525979042053, -1.1139426231384277, -2.0982425212860107, -0.09945978224277496, -0.4630015194416046, 1.7637829780578613], [0.07294242084026337, -0.666330873966217, 0.7504919171333313, -0.14821548759937286, -0.1771397590637207, -1.0134958028793335, -1.0586591958999634, 0.7118277549743652, -1.3294657468795776, 0.4904392957687378, 0.19902357459068298, 0.9883562922477722, -0.6596865653991699, -0.5555939078330994, -0.7444614768028259, 1.676431655883789, 0.9334881901741028, -0.342772513628006, 1.6974142789840698, -1.774693250656128, 1.2467386722564697, 0.18255537748336792, -0.3330637514591217, 0.05597629398107529, 0.11710081994533539, -0.7664287686347961, -0.6386961936950684, 0.16868765652179718, 1.0781548023223877, 0.22166289389133453, 0.07355470210313797, -1.2179008722305298, -0.8002126812934875, -0.6468566656112671, 0.18740332126617432, -1.2313871383666992, 0.024192949756979942, 0.10818512737751007, 1.6745132207870483, -0.9614205956459045, -0.5506687164306641, -0.5740717649459839, 0.0036804236005991697, 0.3991073668003082, -0.4265154004096985, 1.715393304824829, 0.59256911277771, 0.5439932942390442, 0.1501426249742508, -0.984416127204895, 2.5008068084716797, 0.33442795276641846, -0.7912669777870178, -0.5345851182937622, -0.29333367943763733, -0.8918668031692505, 0.13134509325027466, 0.5391494631767273, -0.12774255871772766, 0.06439588963985443, 1.242729902267456, -0.7272652983665466, -0.27746880054473877, -0.49337661266326904], [1.6522005796432495, 2.5734195709228516, -1.186948299407959, -0.34780675172805786, -0.08356880396604538, -1.2068746089935303, 0.96329665184021, -0.002942413790151477, -0.16290195286273956, -1.5054246187210083, 2.124486207962036, 0.38031595945358276, -0.6015914082527161, -1.7948055267333984, 0.5101856589317322, -0.34632933139801025, -0.6938775777816772, -0.18015608191490173, -0.1922788918018341, -0.950316309928894, 1.3771015405654907, -0.23483695089817047, -0.7109361886978149, 1.1412463188171387, 0.1421896070241928, -0.8478410840034485, 1.0768848657608032, -0.34836962819099426, 0.2387569397687912, 0.4380573034286499, -2.435561418533325, -0.33411940932273865, -0.07191396504640579, 0.8662585020065308, -0.17967627942562103, -1.170394778251648, 0.9092475771903992, 0.011259473860263824, 0.6536285281181335, 0.7615242004394531, 0.14926785230636597, -0.6241957545280457, 0.787230908870697, 0.9682639241218567, 0.6530718207359314, -1.3658177852630615, -1.158180832862854, -0.034408099949359894, -0.8593102097511292, -0.6649867296218872, -0.2930302321910858, -0.29714643955230713, -0.39826369285583496, -0.3336818814277649, 0.19042335450649261, -0.10388576239347458, -0.0594940111041069, -1.3674745559692383, 0.701575756072998, -0.7544509172439575, 1.534040093421936, 0.836319625377655, 0.8171037435531616, -0.48725467920303345], [1.4308996200561523, -0.008633524179458618, -2.0707247257232666, 0.010502494871616364, 0.3738662898540497, -1.7666867971420288, 0.0746702179312706, -0.9116643667221069, 2.115537166595459, -0.3999958336353302, 0.21629390120506287, 0.38916143774986267, 1.7504922151565552, -0.9072723984718323, 1.8170692920684814, -1.826291799545288, -0.36728110909461975, 0.8969002366065979, -1.3955292701721191, -0.3862639367580414, -0.8761501908302307, 0.9183158874511719, 0.4747167229652405, 1.6167057752609253, -0.44836318492889404, 1.2676609754562378, 0.17318423092365265, 0.2046411633491516, 0.14648447930812836, -0.5732333660125732, 0.6612294316291809, 0.5902774930000305, -0.5904176831245422, -0.5263740420341492, -0.2362242341041565, -0.4780079126358032, -0.6052507758140564, 0.08566127717494965, -1.0132606029510498, 0.8544449210166931, 0.06098351255059242, 1.2063255310058594, -0.6009187698364258, -0.10876360535621643, 0.9981676936149597, -1.0468961000442505, -1.475854516029358, 1.58724045753479, -1.4164971113204956, -1.6172362565994263, 1.303114891052246, -1.363901138305664, -1.8642607927322388, -1.3512011766433716, 1.1267290115356445, 0.501859724521637, -0.4279351830482483, 0.8361433148384094, -0.30181196331977844, 1.0605478286743164, 0.4453732669353485, 1.5789223909378052, -1.4862481355667114, 1.4089990854263306], [0.2542027235031128, -0.7679086327552795, -0.8096466660499573, -0.22134344279766083, 1.0366573333740234, -0.9162441492080688, 0.150892436504364, 0.6858274340629578, 0.4813580811023712, -1.0335025787353516, 0.31382787227630615, -0.97599858045578, 0.5099026560783386, 0.5651465654373169, 1.295060396194458, -0.46077898144721985, -0.9733551740646362, -0.7615544199943542, 0.5824854969978333, -0.36480143666267395, 0.6530817747116089, -1.9486459493637085, 0.6663826704025269, -0.23193056881427765, -0.09598487615585327, -0.7090579867362976, -0.8063459992408752, -1.279293417930603, -0.517421305179596, 1.5716558694839478, -0.8841562271118164, 0.03586062788963318, 1.637105107307434, 0.1661139279603958, 0.7440539598464966, 0.09238819032907486, 2.4100284576416016, 0.9260085225105286, -1.6687675714492798, -1.4228646755218506, -0.8028876781463623, -0.003236317541450262, 1.9219300746917725, 0.3613519072532654, 0.5610412955284119, 1.889663577079773, -1.0951306819915771, -0.10111021995544434, 1.4023569822311401, 0.27749937772750854, 0.6837314367294312, -0.023783227428793907, 1.3109699487686157, -0.33289092779159546, 0.6857156753540039, 1.182604432106018, 0.003586022648960352, 0.9463752508163452, -0.1443137675523758, -0.7062570452690125, -0.6982533931732178, 0.8936604261398315, -0.42266857624053955, 0.2226073294878006], [0.906530499458313, -0.6177461743354797, 0.6661102175712585, -0.24408571422100067, -1.303019642829895, -0.011862372979521751, -0.12671321630477905, 0.34289515018463135, 0.05560464411973953, -2.224160671234131, -0.031073205173015594, 0.81129390001297, 0.18562966585159302, -0.6000524163246155, 0.7439507842063904, -1.6853891611099243, -1.437178134918213, 0.1984226107597351, -1.0641356706619263, 0.7240625619888306, -1.2597029209136963, -0.2585742175579071, 0.6030598282814026, -0.49356183409690857, 1.174130916595459, -2.2535369396209717, 1.2879762649536133, -1.605305552482605, -0.8445834517478943, -0.3499408960342407, 0.7294872403144836, 0.6891053318977356, 1.6476165056228638, 0.3714081645011902, 0.6322348117828369, 1.137025237083435, 1.0404448509216309, 0.0721563920378685, 1.4201674461364746, 1.429091453552246, -2.3985493183135986, -0.6557560563087463, 1.6332099437713623, -0.2646704614162445, 0.7083397507667542, 0.05609548091888428, 0.8791144490242004, -0.7757337093353271, -0.8426797389984131, -0.0846465602517128, 0.8784468173980713, 2.4935624599456787, -0.20069681107997894, -0.14230747520923615, 0.2222389280796051, 0.43441537022590637, -0.9524195790290833, 0.5985388159751892, 0.07869303226470947, -0.9005807638168335, -0.002346106804907322, 0.6792640686035156, 0.6158640384674072, 0.5739068984985352], [-1.6848926544189453, 0.9980899691581726, -0.5648995637893677, 0.5084021091461182, -0.9629769325256348, 0.41495344042778015, -0.8944399952888489, -0.18678243458271027, 0.4069477319717407, 0.16997240483760834, -1.1983667612075806, 0.3180607259273529, 0.32893165946006775, -0.7777563333511353, 0.10672614723443985, 0.7327620387077332, -0.3168996274471283, 1.2499709129333496, -0.07786724716424942, -0.9063102602958679, 0.9115098118782043, 0.3832712173461914, -0.24500128626823425, -0.5977857708930969, -2.138950824737549, -0.47360697388648987, 0.45817604660987854, -0.773156464099884, -0.6681973338127136, -0.2788732647895813, -1.1282908916473389, -0.4966087341308594, 2.468205213546753, 1.02947199344635, -2.4509081840515137, 0.09285061806440353, 1.2965670824050903, 0.2989366352558136, 0.12568943202495575, -0.6428868770599365, -1.029475212097168, 1.4052832126617432, -0.3906717598438263, 0.6277347803115845, 1.1103551387786865, -0.43580129742622375, 0.551304042339325, -0.2417081594467163, 2.128729820251465, 1.0840996503829956, 0.1488344371318817, 0.9148853421211243, 0.9777102470397949, -0.3755092918872833, -0.5377728939056396, 0.23779039084911346, -0.9835002422332764, -1.8065179586410522, -1.5033904314041138, -0.689105749130249, -1.484017252922058, -0.5284746289253235, 1.0375170707702637, -0.43192058801651], [-0.22368648648262024, -1.0690844058990479, -0.3583814203739166, -1.162635087966919, 0.6139036417007446, -0.49449819326400757, -1.4568833112716675, 0.7989414930343628, -0.14423631131649017, -0.05292750895023346, 2.0647826194763184, -0.6341179609298706, -0.9346998333930969, -1.389654278755188, -0.17298318445682526, 1.953332781791687, -2.5287225246429443, 0.3344840109348297, -1.3755607604980469, 0.06883735954761505, 2.532249927520752, 0.6698983907699585, -1.6358213424682617, -0.8047984838485718, -0.27120378613471985, 0.7803511023521423, 2.035667896270752, 0.5095146894454956, 0.3819095194339752, -1.4281355142593384, 0.8766905069351196, 1.2388173341751099, 0.9099511504173279, 0.15769194066524506, -0.05941670760512352, 0.3256881833076477, 0.42670491337776184, 1.8894522190093994, -0.3395337164402008, 1.3972761631011963, 0.7789269089698792, -0.2361312061548233, 0.5736711621284485, 0.8111938834190369, -1.6355209350585938, 1.3205949068069458, -0.2684578001499176, 0.8386392593383789, -0.2701181471347809, 0.4100348651409149, 2.2875962257385254, 1.1103050708770752, 0.22782905399799347, -0.8567475080490112, 0.811553418636322, -0.10098302364349365, -0.06224780157208443, -0.3866591155529022, -0.4568977355957031, 2.779890775680542, 0.38985711336135864, -2.2023046016693115, -2.1987357139587402, 0.49692901968955994], [1.4698938131332397, -0.13117992877960205, -0.1300266981124878, -0.2600201964378357, -0.8428490161895752, -2.7290163040161133, 0.3893692195415497, 1.0997209548950195, 0.3274335563182831, 1.912197232246399, -1.0684133768081665, -0.2063370645046234, 1.6902718544006348, -0.5773754119873047, 0.17762936651706696, -0.670232355594635, -1.264649748802185, -0.08343617618083954, -0.2617126405239105, 0.7796640992164612, -0.6728501915931702, -0.44339391589164734, -0.23030869662761688, -1.4256805181503296, -1.3515079021453857, 0.7092300057411194, 0.707792341709137, -0.6019805073738098, -0.768764317035675, 0.28723886609077454, -0.6468212604522705, 0.5675424337387085, -0.0925387293100357, -0.3520137071609497, -0.9050719738006592, 0.04623844847083092, -1.127427101135254, -1.3220188617706299, 0.8279306888580322, -0.14392085373401642, 0.6796912550926208, -0.8573735952377319, -0.8882112503051758, -0.032134462147951126, -0.7937087416648865, -0.32564136385917664, 0.4425908327102661, 1.059369444847107, 0.816010594367981, -1.786501407623291, -1.0436691045761108, -0.23990398645401, -0.18968133628368378, 0.5737867951393127, 1.1981209516525269, -1.173805594444275, -1.1454359292984009, -0.8831725716590881, -0.7850828170776367, -0.9650442600250244, 0.6143730282783508, -0.6527788043022156, 0.6871386766433716, -1.0778964757919312], [-0.09825710207223892, 1.708128809928894, 0.5383291244506836, 3.3983347415924072, -2.2216732501983643, -1.6901602745056152, -0.5488809943199158, 0.48987090587615967, 0.5032467842102051, -1.423033356666565, -0.9660775065422058, 1.7502782344818115, -0.265328049659729, -0.31106874346733093, 0.6233237981796265, 0.2921505272388458, -0.5716959834098816, -0.17569519579410553, -0.1845294088125229, -0.5834152698516846, 1.3451474905014038, 1.052525281906128, 0.8927062153816223, 0.3590482473373413, -1.1672636270523071, 1.5023056268692017, -0.09530340135097504, -2.017597198486328, 0.002263931790366769, 0.5501524806022644, 0.779844343662262, -0.5941063165664673, 0.4891968369483948, -0.8954883217811584, -1.601019263267517, -0.34388256072998047, 1.035423755645752, 1.401705026626587, -0.0656822919845581, -0.5241286158561707, 0.8324344158172607, 0.20162340998649597, -2.634617805480957, -0.700717031955719, 0.8397887349128723, 0.5494794845581055, -1.5259191989898682, 1.0838093757629395, 1.5708400011062622, -1.547512412071228, 0.34087029099464417, 0.3201463520526886, 1.0145961046218872, -0.126561239361763, -0.1594899594783783, -0.7196556329727173, -2.1149141788482666, -1.371062994003296, 1.0198485851287842, -2.246216297149658, -2.2031707763671875, -0.8209078311920166, 0.36202526092529297, -1.0310626029968262], [-1.5732725858688354, 0.5022715926170349, 0.01934630423784256, -0.2072155624628067, -1.3408678770065308, -0.8970929384231567, 0.18151386082172394, -0.06454972177743912, 0.6312993168830872, -0.010152336210012436, -0.4341411292552948, -2.575127601623535, -0.5906636714935303, -0.2721432149410248, -0.3455720841884613, 1.9260059595108032, 1.6160979270935059, -2.3628013134002686, 0.2915192246437073, 0.6569877862930298, -0.5527591705322266, 1.682797908782959, 0.6922776699066162, -0.7906289100646973, 0.9088866114616394, -1.2479205131530762, 0.6188211441040039, 1.5052173137664795, -0.5116825103759766, 0.7671427726745605, -2.107003927230835, 0.10521310567855835, 0.871629536151886, -1.282242774963379, -0.17473191022872925, -0.18488457798957825, 0.6366716623306274, 0.357648104429245, -0.19350239634513855, -0.44897300004959106, 0.12326857447624207, -0.4236043393611908, 0.30005502700805664, 0.5233912467956543, -0.3000986576080322, 0.7372788786888123, -1.490533471107483, 0.541577935218811, -0.8989089727401733, 1.8128989934921265, -1.1456272602081299, 1.1031233072280884, 1.1833057403564453, -1.0706437826156616, 0.6731123328208923, 0.7402711510658264, -0.8951592445373535, -0.9806196093559265, 0.010728834196925163, -0.3062661290168762, 1.6720330715179443, 0.8889343738555908, 0.23086269199848175, -0.48003679513931274], [1.0153037309646606, -0.6536385416984558, 0.3057105541229248, -0.9050796627998352, 0.5093411803245544, 1.2956957817077637, 1.5498647689819336, 0.3646548390388489, 0.3186802268028259, 0.08640886098146439, 1.3616437911987305, 0.13812659680843353, 0.012817795388400555, 0.9069644808769226, 1.3759124279022217, -1.2321056127548218, -1.019853115081787, -1.028119444847107, -0.14704225957393646, 1.563948154449463, 0.3155158758163452, 0.02488013729453087, -1.2178704738616943, -0.16631394624710083, -0.6455989480018616, 1.237669825553894, 1.6098213195800781, -1.3069636821746826, -0.666302502155304, 0.5226000547409058, 0.5836448669433594, -0.119609534740448, -0.14291593432426453, 0.26272207498550415, 0.33443158864974976, 1.1644365787506104, 0.4104248881340027, -0.7361233830451965, 0.03780313581228256, 0.5759013891220093, 0.46501871943473816, 0.30646440386772156, 0.32147958874702454, -0.7888641953468323, 0.6027289032936096, -1.401728630065918, 1.1161164045333862, -0.193309023976326, -0.5470677018165588, -0.8992847204208374, 0.2278239130973816, 0.4737502336502075, -0.282050758600235, -0.2641045153141022, -0.10988707095384598, 1.7984087467193604, 0.05337195470929146, -0.018629923462867737, -0.9518552422523499, 1.3131539821624756, 0.5300170183181763, -0.06709420680999756, -1.1437599658966064, -0.9402691721916199], [0.6480341553688049, 1.5208364725112915, 0.07969441264867783, 1.2440311908721924, 0.42381784319877625, 0.2925950288772583, 1.7963701486587524, 0.9477445483207703, 0.05466790869832039, 0.6344700455665588, 0.35223060846328735, -2.27203369140625, -0.5140558481216431, -0.42089948058128357, 0.980091392993927, -2.544534206390381, 0.3550283908843994, -1.4673659801483154, 0.6982719302177429, 0.4788043200969696, -0.03909595310688019, -0.6699338555335999, 0.8219422101974487, 1.0566715002059937, -0.9805709719657898, 0.7544941306114197, -1.0460175275802612, 0.026304038241505623, 0.2522549629211426, 1.1541086435317993, -1.014339566230774, -0.8663877248764038, -0.6461536884307861, 0.7622203826904297, 0.5284813642501831, -1.8711224794387817, -0.5474130511283875, 1.009190320968628, -0.9218515157699585, 0.5266308784484863, 1.0984227657318115, 0.9524206519126892, -1.1251050233840942, 0.23068179190158844, 1.7585527896881104, -0.3735213577747345, -0.8177067041397095, 0.9155703186988831, 0.37266263365745544, 0.15288841724395752, 0.8378682732582092, 1.2242887020111084, 0.3825037479400635, 1.8960020542144775, 0.9144576191902161, -0.2460152506828308, 0.1268204003572464, 1.05734121799469, -0.8222104907035828, -0.5468806028366089, 0.39612114429473877, 1.860714077949524, 1.2191824913024902, -0.6067111492156982], [-1.5089482069015503, -1.250970482826233, -1.39243745803833, 0.09922132641077042, 1.1926900148391724, -0.73548424243927, 0.3430686891078949, 0.7910125851631165, 0.4866205155849457, -1.7319655418395996, -0.1895454227924347, -1.1837313175201416, 1.7242690324783325, 0.06636815518140793, -1.4982233047485352, -0.8266698718070984, -0.9219663739204407, 0.4321664273738861, -0.6768595576286316, -1.4246231317520142, 0.7462389469146729, -2.1942949295043945, -0.8507672548294067, 0.9343166947364807, -1.1415278911590576, -1.2070891857147217, -1.1111749410629272, -0.6302648186683655, 0.9438332915306091, -0.09653741866350174, -0.32412153482437134, 0.5581322908401489, -1.2348015308380127, 1.2658499479293823, -0.7315893769264221, 0.02682133950293064, 0.6437035799026489, -1.1173919439315796, -0.05883054435253143, 1.492010474205017, 1.8473905324935913, -0.26898592710494995, 0.8833919763565063, -1.8834202289581299, 1.395165205001831, -0.32166779041290283, 1.0616044998168945, -1.1685162782669067, -0.8661209940910339, -0.8489851355552673, -2.0465047359466553, -0.6201555728912354, -1.1611814498901367, -1.1741834878921509, -0.48907744884490967, 0.9371899962425232, -0.2899099290370941, 0.45142844319343567, -1.5284667015075684, 0.6429301500320435, 3.31516170501709, 0.04983743280172348, -1.2473170757293701, 0.35833922028541565], [-0.32295697927474976, 0.19694094359874725, 0.13537709414958954, -0.3798740804195404, -1.3753955364227295, -0.7876042127609253, 1.2884222269058228, -1.8452292680740356, -1.434808611869812, -0.49416348338127136, 0.46471941471099854, 1.2007925510406494, -0.3253103494644165, -0.087493397295475, -1.2625008821487427, -1.1533178091049194, 0.7275838851928711, -0.6683306694030762, 1.2178750038146973, -0.4417196214199066, -0.855774462223053, 0.7518198490142822, -2.5817747116088867, -2.0777361392974854, 1.8189723491668701, -0.38560953736305237, -0.27891239523887634, 0.6600601077079773, 0.7037002444267273, 0.39606520533561707, 1.5493888854980469, -1.087658166885376, -0.33505645394325256, 1.2836512327194214, -0.2531724274158478, 0.5494986772537231, -1.5093106031417847, -1.0951778888702393, -0.7454870939254761, -1.1845711469650269, 0.7685166001319885, -2.2169368267059326, 0.4172298312187195, -0.8285999298095703, 0.9064954519271851, -1.5197186470031738, -1.2000441551208496, 0.4189830720424652, -0.6049673557281494, -0.15922068059444427, 0.5012965202331543, 0.7315638661384583, 0.2568538188934326, 0.8884944915771484, -1.3331210613250732, 2.0928194522857666, 0.22232092916965485, 0.680182933807373, 1.477243423461914, 1.4296693801879883, -1.2202637195587158, 0.6297826766967773, 0.3907793462276459, 1.3431771993637085], [-0.19250771403312683, -0.7587606906890869, 1.5755399465560913, 0.548737645149231, -0.9377920031547546, -0.20313255488872528, 0.7626355886459351, -0.07992857694625854, -1.0065239667892456, -0.3806992173194885, 2.0475025177001953, 0.7118227481842041, -0.7758931517601013, -0.270039826631546, 0.01662670262157917, 1.2984392642974854, -0.4207931160926819, 0.772587776184082, -0.33762627840042114, -0.7801017165184021, 